0.1
0.1
0.1
0.1
0.1
0.1
0.1
0.1
0.1
0.1
0.1
0.1
0.1
0.1
0.1
0.1
0.1
0.1
0.1
0.1
0.1
0.1
0.1
0.1
0.1
0.1
0.1
0.1
0.1
0.1
0.1
0.1
0.1
0.1
0.1
0.1
0.1
0.1
0.1
0.1
0.1
0.1
0.1
0.1
0.1
0.1
0.1
0.1
0.1
0.1
0.1
0.1
0.1
0.1
0.1
0.1
0.1
0.1
0.1
0.1
0.1
0.1
0.1
0.1
0.1
0.1
0.1
0.1
0.1
0.1
0.1
0.1
0.1
0.1
0.1
0.1
0.1
0.1
0.1
0.1
0.1
0.1
0.1
0.1
0.1
0.1
0.1
0.1
0.1
0.1
0.1
0.1
0.1
0.1
0.1
0.1
0.1
0.1
0.1
0.1
0.1
0.1
0.1
0.1
0.1
0.1
0.1
0.1
0.1
0.1
0.1
0.1
0.1
0.1
0.1
0.1
0.1
0.1
0.1
0.1
0.1
0.1
0.1
0.1
0.1
0.1
0.1
0.1
0.1
0.1
0.1
0.1
0.1
0.1
0.1
0.1
0.1
0.1
0.1
0.1
0.1
0.1
0.1
0.1
0.1
0.1
0.1
0.1
0.1
0.1
0.1
0.1
0.1
0.1
0.1
0.1
0.1
0.1
0.1
0.1
0.1
0.1
0.1
0.1
0.1
0.1
0.1
0.1
0.1
0.1
0.1
0.1
0.1
0.1
0.1
0.1
0.1
0.1
0.1
0.1
0.1
0.1
0.1
0.1
0.1
0.1
0.1
0.1
0.1
0.1
0.1
0.1
0.1
0.1
0.1
0.1
0.1
0.1
0.1
0.1
0.1
0.1
0.1
0.1
0.1
0.1
0.1
0.1
0.1
0.1
0.1
0.1
0.1
0.1
0.1
0.1
0.1
0.1
0.1
0.1
0.1
0.1
0.1
0.1
0.1
0.1
0.1
0.1
0.1
0.1
0.1
0.1
0.1
0.1
0.1
0.1
0.1
0.1
0.1
0.1
0.1
0.1
0.1
0.1
0.1
0.1
0.1
0.1
0.1
0.1
0.1
0.1
0.1
0.1
0.1
0.1
0.1
0.1
0.1
0.1
0.1
0.1
0.1
0.1
0.1
0.1
0.1
0.1
0.1
0.1
0.1
0.1
0.1
0.1
0.1
0.1
0.1
0.1
0.1
0.1
0.1
0.1
0.1
0.1
0.1
0.1
0.1
0.1
0.1
0.1
0.1
0.1
0.1
0.1
0.1
0.1
0.1
0.1
0.1
0.1
0.1
0.1
0.1
0.1
0.1
0.1
0.1
0.1
0.1
0.1
0.1
0.1
0.1
0.1
0.1
0.1
0.1
0.1
0.1
0.1
0.1
0.1
0.1
0.1
0.1
0.1
0.1
0.1
0.1
0.1
0.1
0.1
0.1
0.1
0.1
0.1
0.1
0.1
0.1
0.1
0.1
0.1
0.1
0.1
0.1
0.1
0.1
0.1
0.1
0.1
0.1
0.1
0.1
0.1
0.1
0.1
0.1
0.1
0.1
0.1
0.1
0.1
0.1
0.1
0.1
0.1
0.1
0.1
0.1
0.1
0.1
0.1
0.1
0.1
0.1
0.1
0.1
0.1
0.1
0.1
0.1
0.1
0.1
0.1
0.1
0.1
0.1
0.1
0.1
0.1
0.1
0.1
0.1
0.1
0.1
0.1
0.1
0.1
0.1
0.1
0.1
0.1
0.1
0.1
0.1
0.1
0.1
0.1
0.1
0.1
0.1
0.1
0.1
0.1
0.1
0.1
0.1
0.1
0.1
0.1
0.1
0.1
0.1
0.1
0.1
0.1
0.1
0.1
0.1
0.1
0.1
0.1
0.1
0.1
0.1
0.1
0.1
0.1
0.1
0.1
0.1
0.1
0.1
0.1
0.1
0.1
0.1
0.1
0.1
0.1
0.1
0.1
0.1
0.1
0.1
0.1
0.1
0.1
0.1
0.1
0.1
0.1
0.1
0.1
0.1
0.1
0.1
0.1
0.1
0.1
0.1
0.1
0.1
0.1
0.1
0.1
0.1
0.1
0.1
0.1
0.1
0.1
0.1
0.1
0.1
0.1
0.1
0.1
0.1
0.1
0.1
0.1
0.1
0.1
0.1
0.1
0.1
0.1
0.1
0.1
0.1
0.0
0.0
0.0
0.0
0.0
0.0
0.0
0.0
0.0
0.0
0.0
0.0
0.0
0.0
0.0
0.0
0.0
0.0
0.0
0.0
0.0
0.0
0.0
0.0
0.0
0.0
0.0
0.0
0.0
0.0
0.0
0.0
0.0
0.0
0.0
0.0
0.0
0.0
0.0
0.0
0.0
0.0
0.0
0.0
0.0
0.0
0.0
0.0
0.0
0.0
0.0
0.0
0.0
0.0
0.0
0.0
0.0
0.0
0.0
0.0
0.0
0.0
0.0
0.0
0.0
0.0
0.0
0.0
0.0
0.0
0.0
0.0
0.0
0.0
0.0
0.0
0.0
0.0
0.0
0.0
0.0
0.0
0.0
0.0
0.0
0.0
0.0
0.0
0.0
0.0
0.0
0.0
0.0
0.0
0.0
0.0
0.0
0.0
0.0
0.0
0.0
0.0
0.0
0.0
0.0
0.0
0.0
0.0
0.0
0.0
0.0
0.0
0.0
0.0
0.0
0.0
0.0
0.0
0.0
0.0
0.0
0.0
0.0
0.0
0.0
0.0
0.0
0.0
0.0
0.0
0.0
0.0
0.0
0.0
0.0
0.0
0.0
0.0
0.0
0.0
0.0
0.0
0.0
0.0
0.0
0.0
0.0
0.0
0.0
0.0
0.0
0.0
0.0
0.0
0.0
0.0
0.0
0.0
0.0
0.0
0.0
0.0
0.0
0.0
0.0
0.0
0.0
0.0
0.0
0.0
0.0
0.0
0.0
0.0
0.0
0.0
0.0
0.0
0.0
0.0
0.0
0.0
0.0
0.0
0.0
0.0
0.0
0.0
0.0
0.0
0.0
0.0
0.0
0.0
0.0
0.0
0.0
0.0
0.0
0.0
0.0
0.0
0.0
0.0
0.0
0.0
0.0
0.0
0.0
0.0
0.0
0.0
0.0
0.0
0.0
0.0
0.0
0.0
0.0
0.0
0.0
0.0
0.0
0.0
0.0
0.0
0.0
0.0
0.0
0.0
0.0
0.0
0.0
0.0
0.0
0.0
0.0
0.0
0.0
0.0
0.0
0.0
0.0
0.0
0.0
0.0
0.0
0.0
0.0
0.0
0.0
0.0
0.0
0.0
0.0
0.0
0.0
0.0
0.0
0.0
0.0
0.0
0.0
0.0
0.0
0.0
0.0
0.0
0.0
0.0
0.0
0.0
0.0
0.0
0.0
0.0
0.0
0.0
0.0
0.0
0.0
0.0
0.0
0.0
0.0
0.0
0.0
0.0
0.0
0.0
0.0
0.0
0.0
0.0
0.0
0.0
0.0
0.0
0.0
0.0
0.0
0.0
0.0
0.0
0.0
0.0
0.0
0.0
0.0
0.0
0.0
0.0
0.0
0.0
0.0
0.0
0.0
0.0
0.0
0.0
0.0
0.0
0.0
0.0
0.0
0.0
0.0
0.0
0.0
0.0
0.0
0.0
0.0
0.0
0.0
0.0
0.0
0.0
0.0
0.0
0.0
0.0
0.0
0.0
0.0
0.0
0.0
0.0
0.0
0.0
0.0
0.0
0.0
0.0
0.0
0.0
0.0
0.0
0.0
0.0
0.0
0.0
0.0
0.0
0.0
0.0
0.0
0.0
0.0
0.0
0.0
0.0
0.0
0.0
0.0
0.0
0.0
0.0
0.0
0.0
0.0
0.0
0.0
0.0
0.0
0.0
0.0
0.0
0.0
0.0
0.0
0.0
0.0
0.0
0.0
0.0
0.0
0.0
0.0
0.0
-0.8698486
-0.019819537
0.02761848
-0.019819537
-0.019819537
-0.019819537
-0.019819537
-0.019819537
-0.019819537
-0.019819537
-0.019819537
-0.019819537
-0.019819537
-0.019819537
-0.019819537
-0.019819537
-0.019819537
-0.019819537
-0.019819537
-0.019819537
-0.019819537
-0.019819537
-0.019819537
-0.019819537
-0.019819537
-0.019819537
-0.019819537
4.9636613E-13
4.9636613E-13
4.9636613E-13
4.9636613E-13
4.9636613E-13
4.9636613E-13
4.9636613E-13
4.9636613E-13
4.9636613E-13
4.9636613E-13
4.9636613E-13
4.9636613E-13
4.9636613E-13
4.9636613E-13
4.9636613E-13
4.9636613E-13
4.9636613E-13
4.9636613E-13
4.9636613E-13
4.9636613E-13
4.9636613E-13
4.9636613E-13
4.9636613E-13
4.9636613E-13
4.9636613E-13
4.9636613E-13
4.9636613E-13
4.9636613E-13
4.9636613E-13
4.9636613E-13
4.9636613E-13
4.9636613E-13
4.9636613E-13
4.9636613E-13
4.9636613E-13
4.9636613E-13
4.9636613E-13
4.9636613E-13
4.9636613E-13
4.9636613E-13
4.9636613E-13
4.9636613E-13
4.9636613E-13
4.9636613E-13
4.9636613E-13
4.9636613E-13
4.9636613E-13
4.9636613E-13
4.9636613E-13
4.9636613E-13
4.9636613E-13
4.9636613E-13
4.9636613E-13
4.9636613E-13
4.9636613E-13
4.9636613E-13
4.9636613E-13
4.9636613E-13
4.9636613E-13
4.9636613E-13
4.9636613E-13
4.9636613E-13
4.9636613E-13
4.9636613E-13
4.9636613E-13
4.9636613E-13
4.9636613E-13
4.9636613E-13
4.9636613E-13
4.9636613E-13
4.9636613E-13
4.9636613E-13
4.9636613E-13
4.9636613E-13
4.9636613E-13
4.9636613E-13
4.9636613E-13
4.9636613E-13
4.9636613E-13
4.9636613E-13
4.9636613E-13
4.9636613E-13
4.9636613E-13
4.9636613E-13
4.9636613E-13
4.9636613E-13
4.9636613E-13
4.9636613E-13
4.9636613E-13
4.9636613E-13
4.9636613E-13
4.9636613E-13
4.9636613E-13
4.9636613E-13
4.9636613E-13
4.9636613E-13
4.9636613E-13
4.9636613E-13
4.9636613E-13
4.9636613E-13
4.9636613E-13
4.9636613E-13
4.9636613E-13
4.9636613E-13
4.9636613E-13
4.9636613E-13
4.9636613E-13
4.9636613E-13
4.9636613E-13
4.9636613E-13
4.9636613E-13
4.9636613E-13
4.9636613E-13
4.9636613E-13
4.9636613E-13
4.9636613E-13
4.9636613E-13
4.9636613E-13
4.9636613E-13
4.9636613E-13
4.9636613E-13
4.9636613E-13
4.9636613E-13
4.9636613E-13
4.9636613E-13
4.9636613E-13
4.9636613E-13
4.9636613E-13
4.9636613E-13
4.9636613E-13
4.9636613E-13
4.9636613E-13
4.9636613E-13
4.9636613E-13
4.9636613E-13
4.9636613E-13
4.9636613E-13
4.9636613E-13
4.9636613E-13
4.9636613E-13
4.9636613E-13
4.9636613E-13
4.9636613E-13
4.9636613E-13
4.9636613E-13
4.9636613E-13
4.9636613E-13
4.9636613E-13
4.9636613E-13
4.9636613E-13
4.9636613E-13
4.9636613E-13
4.9636613E-13
4.9636613E-13
4.9636613E-13
4.9636613E-13
4.9636613E-13
4.9636613E-13
4.9636613E-13
4.9636613E-13
4.9636613E-13
4.9636613E-13
4.9636613E-13
4.9636613E-13
4.9636613E-13
4.9636613E-13
4.9636613E-13
4.9636613E-13
4.9636613E-13
4.9636613E-13
4.9636613E-13
4.9636613E-13
4.9636613E-13
4.9636613E-13
4.9636613E-13
4.9636613E-13
4.9636613E-13
4.9636613E-13
4.9636613E-13
4.9636613E-13
4.9636613E-13
4.9636613E-13
4.9636613E-13
4.9636613E-13
4.9636613E-13
4.9636613E-13
4.9636613E-13
4.9636613E-13
4.9636613E-13
4.9636613E-13
4.9636613E-13
4.9636613E-13
4.9636613E-13
4.9636613E-13
4.9636613E-13
4.9636613E-13
4.9636613E-13
4.9636613E-13
4.9636613E-13
4.9636613E-13
4.9636613E-13
4.9636613E-13
4.9636613E-13
4.9636613E-13
4.9636613E-13
4.9636613E-13
4.9636613E-13
4.9636613E-13
4.9636613E-13
4.9636613E-13
4.9636613E-13
4.9636613E-13
4.9636613E-13
4.9636613E-13
4.9636613E-13
4.9636613E-13
4.9636613E-13
4.9636613E-13
4.9636613E-13
4.9636613E-13
4.9636613E-13
4.9636613E-13
4.9636613E-13
4.9636613E-13
4.9636613E-13
4.9636613E-13
4.9636613E-13
4.9636613E-13
4.9636613E-13
4.9636613E-13
4.9636613E-13
4.9636613E-13
4.9636613E-13
4.9636613E-13
4.9636613E-13
4.9636613E-13
4.9636613E-13
4.9636613E-13
4.9636613E-13
4.9636613E-13
4.9636613E-13
4.9636613E-13
4.9636613E-13
4.9636613E-13
4.9636613E-13
4.9636613E-13
4.9636613E-13
4.9636613E-13
4.9636613E-13
4.9636613E-13
4.9636613E-13
4.9636613E-13
4.9636613E-13
4.9636613E-13
4.9636613E-13
4.9636613E-13
4.9636613E-13
4.9636613E-13
4.9636613E-13
4.9636613E-13
4.9636613E-13
4.9636613E-13
4.9636613E-13
4.9636613E-13
4.9636613E-13
4.9636613E-13
4.9636613E-13
4.9636613E-13
4.9636613E-13
4.9636613E-13
4.9636613E-13
4.9636613E-13
4.9636613E-13
4.9636613E-13
4.9636613E-13
4.9636613E-13
4.9636613E-13
4.9636613E-13
4.9636613E-13
4.9636613E-13
4.9636613E-13
4.9636613E-13
4.9636613E-13
4.9636613E-13
4.9636613E-13
4.9636613E-13
4.9636613E-13
4.9636613E-13
4.9636613E-13
4.9636613E-13
4.9636613E-13
4.9636613E-13
4.9636613E-13
4.9636613E-13
4.9636613E-13
4.9636613E-13
4.9636613E-13
4.9636613E-13
4.9636613E-13
4.9636613E-13
4.9636613E-13
4.9636613E-13
4.9636613E-13
4.9636613E-13
4.9636613E-13
4.9636613E-13
4.9636613E-13
4.9636613E-13
4.9636613E-13
4.9636613E-13
4.9636613E-13
4.9636613E-13
4.9636613E-13
4.9636613E-13
4.9636613E-13
4.9636613E-13
4.9636613E-13
4.9636613E-13
4.9636613E-13
4.9636613E-13
4.9636613E-13
4.9636613E-13
4.9636613E-13
4.9636613E-13
4.9636613E-13
4.9636613E-13
4.9636613E-13
4.9636613E-13
4.9636613E-13
4.9636613E-13
4.9636613E-13
4.9636613E-13
4.9636613E-13
4.9636613E-13
4.9636613E-13
4.9636613E-13
4.9636613E-13
4.9636613E-13
4.9636613E-13
4.9636613E-13
4.9636613E-13
4.9636613E-13
4.9636613E-13
4.9636613E-13
4.9636613E-13
4.9636613E-13
4.9636613E-13
4.9636613E-13
4.9636613E-13
4.9636613E-13
4.9636613E-13
4.9636613E-13
4.9636613E-13
4.9636613E-13
4.9636613E-13
4.9636613E-13
4.9636613E-13
4.9636613E-13
4.9636613E-13
4.9636613E-13
4.9636613E-13
4.9636613E-13
4.9636613E-13
4.9636613E-13
4.9636613E-13
4.9636613E-13
4.9636613E-13
4.9636613E-13
4.9636613E-13
4.9636613E-13
4.9636613E-13
4.9636613E-13
4.9636613E-13
4.9636613E-13
4.9636613E-13
4.9636613E-13
4.9636613E-13
4.9636613E-13
4.9636613E-13
4.9636613E-13
4.9636613E-13
4.9636613E-13
4.9636613E-13
4.9636613E-13
4.9636613E-13
4.9636613E-13
4.9636613E-13
4.9636613E-13
4.9636613E-13
4.9636613E-13
4.9636613E-13
4.9636613E-13
4.9636613E-13
4.9636613E-13
4.9636613E-13
4.9636613E-13
4.9636613E-13
4.9636613E-13
4.9636613E-13
4.9636613E-13
4.9636613E-13
4.9636613E-13
4.9636613E-13
4.9636613E-13
4.9636613E-13
4.9636613E-13
4.9636613E-13
4.9636613E-13
4.9636613E-13
4.9636613E-13
4.9636613E-13
4.9636613E-13
4.9636613E-13
4.9636613E-13
4.9636613E-13
4.9636613E-13
4.9636613E-13
4.9636613E-13
4.9636613E-13
4.9636613E-13
4.9636613E-13
4.9636613E-13
4.9636613E-13
4.9636613E-13
4.9636613E-13
4.9636613E-13
4.9636613E-13
4.9636613E-13
4.9636613E-13
4.9636613E-13
4.9636613E-13
4.9636613E-13
4.9636613E-13
4.9636613E-13
4.9636613E-13
4.9636613E-13
4.9636613E-13
4.9636613E-13
4.9636613E-13
4.9636613E-13
4.9636613E-13
4.9636613E-13
4.9636613E-13
4.9636613E-13
4.9636613E-13
4.9636613E-13
4.9636613E-13
4.9636613E-13
4.9636613E-13
4.9636613E-13
4.9636613E-13
4.9636613E-13
4.9636613E-13
4.9636613E-13
4.9636613E-13
4.9636613E-13
4.9636613E-13
4.9636613E-13
4.9636613E-13
4.9636613E-13
4.9636613E-13
4.9636613E-13
4.9636613E-13
4.9636613E-13
4.9636613E-13
4.9636613E-13
4.9636613E-13
4.9636613E-13
4.9636613E-13
4.9636613E-13
4.9636613E-13
4.9636613E-13
4.9636613E-13
4.9636613E-13
0.0
0.0
0.0
0.0
0.0
0.0
0.0
0.0
0.0
0.0
0.0
0.0
0.0
0.0
0.0
0.0
0.0
0.0
0.0
0.0
0.0
0.0
0.0
0.0
0.0
0.0
0.0
0.0
0.0
0.0
0.0
0.0
0.0
0.0
0.0
0.0
0.0
0.0
0.0
0.0
0.0
0.0
0.0
0.0
0.0
0.0
0.0
0.0
0.0
0.0
0.0
0.0
0.0
0.0
0.0
0.0
0.0
0.0
0.0
0.0
0.0
0.0
0.0
0.0
0.0
0.0
0.0
0.0
0.0
0.0
0.0
0.0
0.0
0.0
0.0
0.0
0.0
0.0
0.0
0.0
0.0
0.0
0.0
0.0
0.0
0.0
0.0
0.0
0.0
0.0
0.0
0.0
0.0
0.0
0.0
0.0
0.0
0.0
0.0
0.0
0.0
0.0
0.0
0.0
0.0
0.0
0.0
0.0
0.0
0.0
0.0
0.0
0.0
0.0
0.0
0.0
0.0
0.0
0.0
0.0
0.0
0.0
0.0
0.0
0.0
0.0
0.0
0.0
0.0
0.0
0.0
0.0
0.0
0.0
0.0
0.0
0.0
0.0
0.0
0.0
0.0
0.0
0.0
0.0
0.0
0.0
0.0
0.0
0.0
0.0
0.0
0.0
0.0
0.0
0.0
0.0
0.0
0.0
0.0
0.0
0.0
0.0
0.0
0.0
0.0
0.0
0.0
0.0
0.0
0.0
0.0
0.0
0.0
0.0
0.0
0.0
0.0
0.0
0.0
0.0
0.0
0.0
0.0
0.0
0.0
0.0
0.0
0.0
0.0
0.0
0.0
0.0
0.0
0.0
0.0
0.0
0.0
0.0
0.0
0.0
0.0
0.0
0.0
0.0
0.0
0.0
0.0
0.0
0.0
0.0
0.0
0.0
0.0
0.0
0.0
0.0
0.0
0.0
0.0
0.0
0.0
0.0
0.0
0.0
0.0
0.0
0.0
0.0
0.0
0.0
0.0
0.0
0.0
0.0
0.0
0.0
0.0
0.0
0.0
0.0
0.0
0.0
0.0
0.0
0.0
0.0
0.0
0.0
0.0
0.0
0.0
0.0
0.0
0.0
0.0
0.0
0.0
0.0
0.0
0.0
0.0
0.0
0.0
0.0
0.0
0.0
0.0
0.0
0.0
0.0
0.0
0.0
0.0
0.0
0.0
0.0
0.0
0.0
0.0
0.0
0.0
0.0
0.0
0.0
0.0
0.0
0.0
0.0
0.0
0.0
0.0
0.0
0.0
0.0
0.0
0.0
0.0
0.0
0.0
0.0
0.0
0.0
0.0
0.0
0.0
0.0
0.0
0.0
0.0
0.0
0.0
0.0
0.0
0.0
0.0
0.0
0.0
0.0
0.0
0.0
0.0
0.0
0.0
0.0
0.0
0.0
0.0
0.0
0.0
0.0
0.0
0.0
0.0
0.0
0.0
0.0
0.0
0.0
0.0
0.0
0.0
0.0
0.0
0.0
0.0
0.0
0.0
0.0
0.0
0.0
0.0
0.0
0.0
0.0
0.0
0.0
0.0
0.0
0.0
0.0
0.0
0.0
0.0
0.0
0.0
0.0
0.0
0.0
0.0
0.0
0.0
0.0
0.0
0.0
0.0
0.0
0.0
0.0
0.0
0.0
0.0
0.0
0.0
0.0
0.0
0.0
0.0
0.0
0.0
0.0
0.0
0.0
0.0
0.0
0.0
0.0
0.0
0.0
0.0
0.0
1.0747513
0.0025558597
-0.013429347
0.0025558597
0.0025558597
0.0025558597
0.0025558597
0.0025558597
0.0025558597
0.0025558597
0.0025558597
0.0025558597
0.0025558597
0.0025558597
0.0025558597
0.0025558597
0.0025558597
0.0025558597
0.0025558597
0.0025558597
0.0025558597
0.0025558597
0.0025558597
0.0025558597
0.0025558597
0.0025558597
0.0025558597
-6.1329197E-13
-6.1329197E-13
-6.1329197E-13
-6.1329197E-13
-6.1329197E-13
-6.1329197E-13
-6.1329197E-13
-6.1329197E-13
-6.1329197E-13
-6.1329197E-13
-6.1329197E-13
-6.1329197E-13
-6.1329197E-13
-6.1329197E-13
-6.1329197E-13
-6.1329197E-13
-6.1329197E-13
-6.1329197E-13
-6.1329197E-13
-6.1329197E-13
-6.1329197E-13
-6.1329197E-13
-6.1329197E-13
-6.1329197E-13
-6.1329197E-13
-6.1329197E-13
-6.1329197E-13
-6.1329197E-13
-6.1329197E-13
-6.1329197E-13
-6.1329197E-13
-6.1329197E-13
-6.1329197E-13
-6.1329197E-13
-6.1329197E-13
-6.1329197E-13
-6.1329197E-13
-6.1329197E-13
-6.1329197E-13
-6.1329197E-13
-6.1329197E-13
-6.1329197E-13
-6.1329197E-13
-6.1329197E-13
-6.1329197E-13
-6.1329197E-13
-6.1329197E-13
-6.1329197E-13
-6.1329197E-13
-6.1329197E-13
-6.1329197E-13
-6.1329197E-13
-6.1329197E-13
-6.1329197E-13
-6.1329197E-13
-6.1329197E-13
-6.1329197E-13
-6.1329197E-13
-6.1329197E-13
-6.1329197E-13
-6.1329197E-13
-6.1329197E-13
-6.1329197E-13
-6.1329197E-13
-6.1329197E-13
-6.1329197E-13
-6.1329197E-13
-6.1329197E-13
-6.1329197E-13
-6.1329197E-13
-6.1329197E-13
-6.1329197E-13
-6.1329197E-13
-6.1329197E-13
-6.1329197E-13
-6.1329197E-13
-6.1329197E-13
-6.1329197E-13
-6.1329197E-13
-6.1329197E-13
-6.1329197E-13
-6.1329197E-13
-6.1329197E-13
-6.1329197E-13
-6.1329197E-13
-6.1329197E-13
-6.1329197E-13
-6.1329197E-13
-6.1329197E-13
-6.1329197E-13
-6.1329197E-13
-6.1329197E-13
-6.1329197E-13
-6.1329197E-13
-6.1329197E-13
-6.1329197E-13
-6.1329197E-13
-6.1329197E-13
-6.1329197E-13
-6.1329197E-13
-6.1329197E-13
-6.1329197E-13
-6.1329197E-13
-6.1329197E-13
-6.1329197E-13
-6.1329197E-13
-6.1329197E-13
-6.1329197E-13
-6.1329197E-13
-6.1329197E-13
-6.1329197E-13
-6.1329197E-13
-6.1329197E-13
-6.1329197E-13
-6.1329197E-13
-6.1329197E-13
-6.1329197E-13
-6.1329197E-13
-6.1329197E-13
-6.1329197E-13
-6.1329197E-13
-6.1329197E-13
-6.1329197E-13
-6.1329197E-13
-6.1329197E-13
-6.1329197E-13
-6.1329197E-13
-6.1329197E-13
-6.1329197E-13
-6.1329197E-13
-6.1329197E-13
-6.1329197E-13
-6.1329197E-13
-6.1329197E-13
-6.1329197E-13
-6.1329197E-13
-6.1329197E-13
-6.1329197E-13
-6.1329197E-13
-6.1329197E-13
-6.1329197E-13
-6.1329197E-13
-6.1329197E-13
-6.1329197E-13
-6.1329197E-13
-6.1329197E-13
-6.1329197E-13
-6.1329197E-13
-6.1329197E-13
-6.1329197E-13
-6.1329197E-13
-6.1329197E-13
-6.1329197E-13
-6.1329197E-13
-6.1329197E-13
-6.1329197E-13
-6.1329197E-13
-6.1329197E-13
-6.1329197E-13
-6.1329197E-13
-6.1329197E-13
-6.1329197E-13
-6.1329197E-13
-6.1329197E-13
-6.1329197E-13
-6.1329197E-13
-6.1329197E-13
-6.1329197E-13
-6.1329197E-13
-6.1329197E-13
-6.1329197E-13
-6.1329197E-13
-6.1329197E-13
-6.1329197E-13
-6.1329197E-13
-6.1329197E-13
-6.1329197E-13
-6.1329197E-13
-6.1329197E-13
-6.1329197E-13
-6.1329197E-13
-6.1329197E-13
-6.1329197E-13
-6.1329197E-13
-6.1329197E-13
-6.1329197E-13
-6.1329197E-13
-6.1329197E-13
-6.1329197E-13
-6.1329197E-13
-6.1329197E-13
-6.1329197E-13
-6.1329197E-13
-6.1329197E-13
-6.1329197E-13
-6.1329197E-13
-6.1329197E-13
-6.1329197E-13
-6.1329197E-13
-6.1329197E-13
-6.1329197E-13
-6.1329197E-13
-6.1329197E-13
-6.1329197E-13
-6.1329197E-13
-6.1329197E-13
-6.1329197E-13
-6.1329197E-13
-6.1329197E-13
-6.1329197E-13
-6.1329197E-13
-6.1329197E-13
-6.1329197E-13
-6.1329197E-13
-6.1329197E-13
-6.1329197E-13
-6.1329197E-13
-6.1329197E-13
-6.1329197E-13
-6.1329197E-13
-6.1329197E-13
-6.1329197E-13
-6.1329197E-13
-6.1329197E-13
-6.1329197E-13
-6.1329197E-13
-6.1329197E-13
-6.1329197E-13
-6.1329197E-13
-6.1329197E-13
-6.1329197E-13
-6.1329197E-13
-6.1329197E-13
-6.1329197E-13
-6.1329197E-13
-6.1329197E-13
-6.1329197E-13
-6.1329197E-13
-6.1329197E-13
-6.1329197E-13
-6.1329197E-13
-6.1329197E-13
-6.1329197E-13
-6.1329197E-13
-6.1329197E-13
-6.1329197E-13
-6.1329197E-13
-6.1329197E-13
-6.1329197E-13
-6.1329197E-13
-6.1329197E-13
-6.1329197E-13
-6.1329197E-13
-6.1329197E-13
-6.1329197E-13
-6.1329197E-13
-6.1329197E-13
-6.1329197E-13
-6.1329197E-13
-6.1329197E-13
-6.1329197E-13
-6.1329197E-13
-6.1329197E-13
-6.1329197E-13
-6.1329197E-13
-6.1329197E-13
-6.1329197E-13
-6.1329197E-13
-6.1329197E-13
-6.1329197E-13
-6.1329197E-13
-6.1329197E-13
-6.1329197E-13
-6.1329197E-13
-6.1329197E-13
-6.1329197E-13
-6.1329197E-13
-6.1329197E-13
-6.1329197E-13
-6.1329197E-13
-6.1329197E-13
-6.1329197E-13
-6.1329197E-13
-6.1329197E-13
-6.1329197E-13
-6.1329197E-13
-6.1329197E-13
-6.1329197E-13
-6.1329197E-13
-6.1329197E-13
-6.1329197E-13
-6.1329197E-13
-6.1329197E-13
-6.1329197E-13
-6.1329197E-13
-6.1329197E-13
-6.1329197E-13
-6.1329197E-13
-6.1329197E-13
-6.1329197E-13
-6.1329197E-13
-6.1329197E-13
-6.1329197E-13
-6.1329197E-13
-6.1329197E-13
-6.1329197E-13
-6.1329197E-13
-6.1329197E-13
-6.1329197E-13
-6.1329197E-13
-6.1329197E-13
-6.1329197E-13
-6.1329197E-13
-6.1329197E-13
-6.1329197E-13
-6.1329197E-13
-6.1329197E-13
-6.1329197E-13
-6.1329197E-13
-6.1329197E-13
-6.1329197E-13
-6.1329197E-13
-6.1329197E-13
-6.1329197E-13
-6.1329197E-13
-6.1329197E-13
-6.1329197E-13
-6.1329197E-13
-6.1329197E-13
-6.1329197E-13
-6.1329197E-13
-6.1329197E-13
-6.1329197E-13
-6.1329197E-13
-6.1329197E-13
-6.1329197E-13
-6.1329197E-13
-6.1329197E-13
-6.1329197E-13
-6.1329197E-13
-6.1329197E-13
-6.1329197E-13
-6.1329197E-13
-6.1329197E-13
-6.1329197E-13
-6.1329197E-13
-6.1329197E-13
-6.1329197E-13
-6.1329197E-13
-6.1329197E-13
-6.1329197E-13
-6.1329197E-13
-6.1329197E-13
-6.1329197E-13
-6.1329197E-13
-6.1329197E-13
-6.1329197E-13
-6.1329197E-13
-6.1329197E-13
-6.1329197E-13
-6.1329197E-13
-6.1329197E-13
-6.1329197E-13
-6.1329197E-13
-6.1329197E-13
-6.1329197E-13
-6.1329197E-13
-6.1329197E-13
-6.1329197E-13
-6.1329197E-13
-6.1329197E-13
-6.1329197E-13
-6.1329197E-13
-6.1329197E-13
-6.1329197E-13
-6.1329197E-13
-6.1329197E-13
-6.1329197E-13
-6.1329197E-13
-6.1329197E-13
-6.1329197E-13
-6.1329197E-13
-6.1329197E-13
-6.1329197E-13
-6.1329197E-13
-6.1329197E-13
-6.1329197E-13
-6.1329197E-13
-6.1329197E-13
-6.1329197E-13
-6.1329197E-13
-6.1329197E-13
-6.1329197E-13
-6.1329197E-13
-6.1329197E-13
-6.1329197E-13
-6.1329197E-13
-6.1329197E-13
-6.1329197E-13
-6.1329197E-13
-6.1329197E-13
-6.1329197E-13
-6.1329197E-13
-6.1329197E-13
-6.1329197E-13
-6.1329197E-13
-6.1329197E-13
-6.1329197E-13
-6.1329197E-13
-6.1329197E-13
-6.1329197E-13
-6.1329197E-13
-6.1329197E-13
-6.1329197E-13
-6.1329197E-13
-6.1329197E-13
-6.1329197E-13
-6.1329197E-13
-6.1329197E-13
-6.1329197E-13
-6.1329197E-13
-6.1329197E-13
-6.1329197E-13
-6.1329197E-13
-6.1329197E-13
-6.1329197E-13
-6.1329197E-13
-6.1329197E-13
-6.1329197E-13
-6.1329197E-13
-6.1329197E-13
-6.1329197E-13
-6.1329197E-13
-6.1329197E-13
-6.1329197E-13
-6.1329197E-13
-6.1329197E-13
-6.1329197E-13
-6.1329197E-13
-6.1329197E-13
-6.1329197E-13
-6.1329197E-13
-6.1329197E-13
-6.1329197E-13
-6.1329197E-13
-6.1329197E-13
-6.1329197E-13
-6.1329197E-13
-6.1329197E-13
-6.1329197E-13
-6.1329197E-13
-6.1329197E-13
-6.1329197E-13
-6.1329197E-13
-6.1329197E-13
-6.1329197E-13
-6.1329197E-13
-6.1329197E-13
-6.1329197E-13
-6.1329197E-13
-6.1329197E-13
-6.1329197E-13
-6.1329197E-13
-6.1329197E-13
-6.1329197E-13
-6.1329197E-13
-6.1329197E-13
-6.1329197E-13
-6.1329197E-13
-6.1329197E-13
-6.1329197E-13
-6.1329197E-13
-6.1329197E-13
-6.1329197E-13
0.0
0.0
0.0
0.0
0.0
0.0
0.0
0.0
0.0
0.0
0.0
0.0
0.0
0.0
0.0
0.0
0.0
0.0
0.0
0.0
0.0
0.0
0.0
0.0
0.0
0.0
0.0
0.0
0.0
0.0
0.0
0.0
0.0
0.0
0.0
0.0
0.0
0.0
0.0
0.0
0.0
0.0
0.0
0.0
0.0
0.0
0.0
0.0
0.0
0.0
0.0
0.0
0.0
0.0
0.0
0.0
0.0
0.0
0.0
0.0
0.0
0.0
0.0
0.0
0.0
0.0
0.0
0.0
0.0
0.0
0.0
0.0
0.0
0.0
0.0
0.0
0.0
0.0
0.0
0.0
0.0
0.0
0.0
0.0
0.0
0.0
0.0
0.0
0.0
0.0
0.0
0.0
0.0
0.0
0.0
0.0
0.0
0.0
0.0
0.0
0.0
0.0
0.0
0.0
0.0
0.0
0.0
0.0
0.0
0.0
0.0
0.0
0.0
0.0
0.0
0.0
0.0
0.0
0.0
0.0
0.0
0.0
0.0
0.0
0.0
0.0
0.0
0.0
0.0
0.0
0.0
0.0
0.0
0.0
0.0
0.0
0.0
0.0
0.0
0.0
0.0
0.0
0.0
0.0
0.0
0.0
0.0
0.0
0.0
0.0
0.0
0.0
0.0
0.0
0.0
0.0
0.0
0.0
0.0
0.0
0.0
0.0
0.0
0.0
0.0
0.0
0.0
0.0
0.0
0.0
0.0
0.0
0.0
0.0
0.0
0.0
0.0
0.0
0.0
0.0
0.0
0.0
0.0
0.0
0.0
0.0
0.0
0.0
0.0
0.0
0.0
0.0
0.0
0.0
0.0
0.0
0.0
0.0
0.0
0.0
0.0
0.0
0.0
0.0
0.0
0.0
0.0
0.0
0.0
0.0
0.0
0.0
0.0
0.0
0.0
0.0
0.0
0.0
0.0
0.0
0.0
0.0
0.0
0.0
0.0
0.0
0.0
0.0
0.0
0.0
0.0
0.0
0.0
0.0
0.0
0.0
0.0
0.0
0.0
0.0
0.0
0.0
0.0
0.0
0.0
0.0
0.0
0.0
0.0
0.0
0.0
0.0
0.0
0.0
0.0
0.0
0.0
0.0
0.0
0.0
0.0
0.0
0.0
0.0
0.0
0.0
0.0
0.0
0.0
0.0
0.0
0.0
0.0
0.0
0.0
0.0
0.0
0.0
0.0
0.0
0.0
0.0
0.0
0.0
0.0
0.0
0.0
0.0
0.0
0.0
0.0
0.0
0.0
0.0
0.0
0.0
0.0
0.0
0.0
0.0
0.0
0.0
0.0
0.0
0.0
0.0
0.0
0.0
0.0
0.0
0.0
0.0
0.0
0.0
0.0
0.0
0.0
0.0
0.0
0.0
0.0
0.0
0.0
0.0
0.0
0.0
0.0
0.0
0.0
0.0
0.0
0.0
0.0
0.0
0.0
0.0
0.0
0.0
0.0
0.0
0.0
0.0
0.0
0.0
0.0
0.0
0.0
0.0
0.0
0.0
0.0
0.0
0.0
0.0
0.0
0.0
0.0
0.0
0.0
0.0
0.0
0.0
0.0
0.0
0.0
0.0
0.0
0.0
0.0
0.0
0.0
0.0
0.0
0.0
0.0
0.0
0.0
0.0
0.0
0.0
0.0
0.0
0.0
0.0
0.0
0.0
0.0
0.0
0.0
0.0
0.0
0.0
0.0
0.0
0.0
0.0
0.0
0.0
0.0
0.0
-0.8698486
-0.019819537
0.02761848
-0.019819537
-0.019819537
-0.019819537
-0.019819537
-0.019819537
-0.019819537
-0.019819537
-0.019819537
-0.019819537
-0.019819537
-0.019819537
-0.019819537
-0.019819537
-0.019819537
-0.019819537
-0.019819537
-0.019819537
-0.019819537
-0.019819537
-0.019819537
-0.019819537
-0.019819537
-0.019819537
-0.019819537
4.9636613E-13
4.9636613E-13
4.9636613E-13
4.9636613E-13
4.9636613E-13
4.9636613E-13
4.9636613E-13
4.9636613E-13
4.9636613E-13
4.9636613E-13
4.9636613E-13
4.9636613E-13
4.9636613E-13
4.9636613E-13
4.9636613E-13
4.9636613E-13
4.9636613E-13
4.9636613E-13
4.9636613E-13
4.9636613E-13
4.9636613E-13
4.9636613E-13
4.9636613E-13
4.9636613E-13
4.9636613E-13
4.9636613E-13
4.9636613E-13
4.9636613E-13
4.9636613E-13
4.9636613E-13
4.9636613E-13
4.9636613E-13
4.9636613E-13
4.9636613E-13
4.9636613E-13
4.9636613E-13
4.9636613E-13
4.9636613E-13
4.9636613E-13
4.9636613E-13
4.9636613E-13
4.9636613E-13
4.9636613E-13
4.9636613E-13
4.9636613E-13
4.9636613E-13
4.9636613E-13
4.9636613E-13
4.9636613E-13
4.9636613E-13
4.9636613E-13
4.9636613E-13
4.9636613E-13
4.9636613E-13
4.9636613E-13
4.9636613E-13
4.9636613E-13
4.9636613E-13
4.9636613E-13
4.9636613E-13
4.9636613E-13
4.9636613E-13
4.9636613E-13
4.9636613E-13
4.9636613E-13
4.9636613E-13
4.9636613E-13
4.9636613E-13
4.9636613E-13
4.9636613E-13
4.9636613E-13
4.9636613E-13
4.9636613E-13
4.9636613E-13
4.9636613E-13
4.9636613E-13
4.9636613E-13
4.9636613E-13
4.9636613E-13
4.9636613E-13
4.9636613E-13
4.9636613E-13
4.9636613E-13
4.9636613E-13
4.9636613E-13
4.9636613E-13
4.9636613E-13
4.9636613E-13
4.9636613E-13
4.9636613E-13
4.9636613E-13
4.9636613E-13
4.9636613E-13
4.9636613E-13
4.9636613E-13
4.9636613E-13
4.9636613E-13
4.9636613E-13
4.9636613E-13
4.9636613E-13
4.9636613E-13
4.9636613E-13
4.9636613E-13
4.9636613E-13
4.9636613E-13
4.9636613E-13
4.9636613E-13
4.9636613E-13
4.9636613E-13
4.9636613E-13
4.9636613E-13
4.9636613E-13
4.9636613E-13
4.9636613E-13
4.9636613E-13
4.9636613E-13
4.9636613E-13
4.9636613E-13
4.9636613E-13
4.9636613E-13
4.9636613E-13
4.9636613E-13
4.9636613E-13
4.9636613E-13
4.9636613E-13
4.9636613E-13
4.9636613E-13
4.9636613E-13
4.9636613E-13
4.9636613E-13
4.9636613E-13
4.9636613E-13
4.9636613E-13
4.9636613E-13
4.9636613E-13
4.9636613E-13
4.9636613E-13
4.9636613E-13
4.9636613E-13
4.9636613E-13
4.9636613E-13
4.9636613E-13
4.9636613E-13
4.9636613E-13
4.9636613E-13
4.9636613E-13
4.9636613E-13
4.9636613E-13
4.9636613E-13
4.9636613E-13
4.9636613E-13
4.9636613E-13
4.9636613E-13
4.9636613E-13
4.9636613E-13
4.9636613E-13
4.9636613E-13
4.9636613E-13
4.9636613E-13
4.9636613E-13
4.9636613E-13
4.9636613E-13
4.9636613E-13
4.9636613E-13
4.9636613E-13
4.9636613E-13
4.9636613E-13
4.9636613E-13
4.9636613E-13
4.9636613E-13
4.9636613E-13
4.9636613E-13
4.9636613E-13
4.9636613E-13
4.9636613E-13
4.9636613E-13
4.9636613E-13
4.9636613E-13
4.9636613E-13
4.9636613E-13
4.9636613E-13
4.9636613E-13
4.9636613E-13
4.9636613E-13
4.9636613E-13
4.9636613E-13
4.9636613E-13
4.9636613E-13
4.9636613E-13
4.9636613E-13
4.9636613E-13
4.9636613E-13
4.9636613E-13
4.9636613E-13
4.9636613E-13
4.9636613E-13
4.9636613E-13
4.9636613E-13
4.9636613E-13
4.9636613E-13
4.9636613E-13
4.9636613E-13
4.9636613E-13
4.9636613E-13
4.9636613E-13
4.9636613E-13
4.9636613E-13
4.9636613E-13
4.9636613E-13
4.9636613E-13
4.9636613E-13
4.9636613E-13
4.9636613E-13
4.9636613E-13
4.9636613E-13
4.9636613E-13
4.9636613E-13
4.9636613E-13
4.9636613E-13
4.9636613E-13
4.9636613E-13
4.9636613E-13
4.9636613E-13
4.9636613E-13
4.9636613E-13
4.9636613E-13
4.9636613E-13
4.9636613E-13
4.9636613E-13
4.9636613E-13
4.9636613E-13
4.9636613E-13
4.9636613E-13
4.9636613E-13
4.9636613E-13
4.9636613E-13
4.9636613E-13
4.9636613E-13
4.9636613E-13
4.9636613E-13
4.9636613E-13
4.9636613E-13
4.9636613E-13
4.9636613E-13
4.9636613E-13
4.9636613E-13
4.9636613E-13
4.9636613E-13
4.9636613E-13
4.9636613E-13
4.9636613E-13
4.9636613E-13
4.9636613E-13
4.9636613E-13
4.9636613E-13
4.9636613E-13
4.9636613E-13
4.9636613E-13
4.9636613E-13
4.9636613E-13
4.9636613E-13
4.9636613E-13
4.9636613E-13
4.9636613E-13
4.9636613E-13
4.9636613E-13
4.9636613E-13
4.9636613E-13
4.9636613E-13
4.9636613E-13
4.9636613E-13
4.9636613E-13
4.9636613E-13
4.9636613E-13
4.9636613E-13
4.9636613E-13
4.9636613E-13
4.9636613E-13
4.9636613E-13
4.9636613E-13
4.9636613E-13
4.9636613E-13
4.9636613E-13
4.9636613E-13
4.9636613E-13
4.9636613E-13
4.9636613E-13
4.9636613E-13
4.9636613E-13
4.9636613E-13
4.9636613E-13
4.9636613E-13
4.9636613E-13
4.9636613E-13
4.9636613E-13
4.9636613E-13
4.9636613E-13
4.9636613E-13
4.9636613E-13
4.9636613E-13
4.9636613E-13
4.9636613E-13
4.9636613E-13
4.9636613E-13
4.9636613E-13
4.9636613E-13
4.9636613E-13
4.9636613E-13
4.9636613E-13
4.9636613E-13
4.9636613E-13
4.9636613E-13
4.9636613E-13
4.9636613E-13
4.9636613E-13
4.9636613E-13
4.9636613E-13
4.9636613E-13
4.9636613E-13
4.9636613E-13
4.9636613E-13
4.9636613E-13
4.9636613E-13
4.9636613E-13
4.9636613E-13
4.9636613E-13
4.9636613E-13
4.9636613E-13
4.9636613E-13
4.9636613E-13
4.9636613E-13
4.9636613E-13
4.9636613E-13
4.9636613E-13
4.9636613E-13
4.9636613E-13
4.9636613E-13
4.9636613E-13
4.9636613E-13
4.9636613E-13
4.9636613E-13
4.9636613E-13
4.9636613E-13
4.9636613E-13
4.9636613E-13
4.9636613E-13
4.9636613E-13
4.9636613E-13
4.9636613E-13
4.9636613E-13
4.9636613E-13
4.9636613E-13
4.9636613E-13
4.9636613E-13
4.9636613E-13
4.9636613E-13
4.9636613E-13
4.9636613E-13
4.9636613E-13
4.9636613E-13
4.9636613E-13
4.9636613E-13
4.9636613E-13
4.9636613E-13
4.9636613E-13
4.9636613E-13
4.9636613E-13
4.9636613E-13
4.9636613E-13
4.9636613E-13
4.9636613E-13
4.9636613E-13
4.9636613E-13
4.9636613E-13
4.9636613E-13
4.9636613E-13
4.9636613E-13
4.9636613E-13
4.9636613E-13
4.9636613E-13
4.9636613E-13
4.9636613E-13
4.9636613E-13
4.9636613E-13
4.9636613E-13
4.9636613E-13
4.9636613E-13
4.9636613E-13
4.9636613E-13
4.9636613E-13
4.9636613E-13
4.9636613E-13
4.9636613E-13
4.9636613E-13
4.9636613E-13
4.9636613E-13
4.9636613E-13
4.9636613E-13
4.9636613E-13
4.9636613E-13
4.9636613E-13
4.9636613E-13
4.9636613E-13
4.9636613E-13
4.9636613E-13
4.9636613E-13
4.9636613E-13
4.9636613E-13
4.9636613E-13
4.9636613E-13
4.9636613E-13
4.9636613E-13
4.9636613E-13
4.9636613E-13
4.9636613E-13
4.9636613E-13
4.9636613E-13
4.9636613E-13
4.9636613E-13
4.9636613E-13
4.9636613E-13
4.9636613E-13
4.9636613E-13
4.9636613E-13
4.9636613E-13
4.9636613E-13
4.9636613E-13
4.9636613E-13
4.9636613E-13
4.9636613E-13
4.9636613E-13
4.9636613E-13
4.9636613E-13
4.9636613E-13
4.9636613E-13
4.9636613E-13
4.9636613E-13
4.9636613E-13
4.9636613E-13
4.9636613E-13
4.9636613E-13
4.9636613E-13
4.9636613E-13
4.9636613E-13
4.9636613E-13
4.9636613E-13
4.9636613E-13
4.9636613E-13
4.9636613E-13
4.9636613E-13
4.9636613E-13
4.9636613E-13
4.9636613E-13
4.9636613E-13
4.9636613E-13
4.9636613E-13
4.9636613E-13
4.9636613E-13
4.9636613E-13
4.9636613E-13
4.9636613E-13
4.9636613E-13
4.9636613E-13
4.9636613E-13
4.9636613E-13
4.9636613E-13
4.9636613E-13
4.9636613E-13
4.9636613E-13
4.9636613E-13
4.9636613E-13
4.9636613E-13
4.9636613E-13
4.9636613E-13
0.0
0.0
0.0
0.0
0.0
0.0
0.0
0.0
0.0
0.0
0.0
0.0
0.0
0.0
0.0
0.0
0.0
0.0
0.0
0.0
0.0
0.0
0.0
0.0
0.0
0.0
0.0
0.0
0.0
0.0
0.0
0.0
0.0
0.0
0.0
0.0
0.0
0.0
0.0
0.0
0.0
0.0
0.0
0.0
0.0
0.0
0.0
0.0
0.0
0.0
0.0
0.0
0.0
0.0
0.0
0.0
0.0
0.0
0.0
0.0
0.0
0.0
0.0
0.0
0.0
0.0
0.0
0.0
0.0
0.0
0.0
0.0
0.0
0.0
0.0
0.0
0.0
0.0
0.0
0.0
0.0
0.0
0.0
0.0
0.0
0.0
0.0
0.0
0.0
0.0
0.0
0.0
0.0
0.0
0.0
0.0
0.0
0.0
0.0
0.0
0.0
0.0
0.0
0.0
0.0
0.0
0.0
0.0
0.0
0.0
0.0
0.0
0.0
0.0
0.0
0.0
0.0
0.0
0.0
0.0
0.0
0.0
0.0
0.0
0.0
0.0
0.0
0.0
0.0
0.0
0.0
0.0
0.0
0.0
0.0
0.0
0.0
0.0
0.0
0.0
0.0
0.0
0.0
0.0
0.0
0.0
0.0
0.0
0.0
0.0
0.0
0.0
0.0
0.0
0.0
0.0
0.0
0.0
0.0
0.0
0.0
0.0
0.0
0.0
0.0
0.0
0.0
0.0
0.0
0.0
0.0
0.0
0.0
0.0
0.0
0.0
0.0
0.0
0.0
0.0
0.0
0.0
0.0
0.0
0.0
0.0
0.0
0.0
0.0
0.0
0.0
0.0
0.0
0.0
0.0
0.0
0.0
0.0
0.0
0.0
0.0
0.0
0.0
0.0
0.0
0.0
0.0
0.0
0.0
0.0
0.0
0.0
0.0
0.0
0.0
0.0
0.0
0.0
0.0
0.0
0.0
0.0
0.0
0.0
0.0
0.0
0.0
0.0
0.0
0.0
0.0
0.0
0.0
0.0
0.0
0.0
0.0
0.0
0.0
0.0
0.0
0.0
0.0
0.0
0.0
0.0
0.0
0.0
0.0
0.0
0.0
0.0
0.0
0.0
0.0
0.0
0.0
0.0
0.0
0.0
0.0
0.0
0.0
0.0
0.0
0.0
0.0
0.0
0.0
0.0
0.0
0.0
0.0
0.0
0.0
0.0
0.0
0.0
0.0
0.0
0.0
0.0
0.0
0.0
0.0
0.0
0.0
0.0
0.0
0.0
0.0
0.0
0.0
0.0
0.0
0.0
0.0
0.0
0.0
0.0
0.0
0.0
0.0
0.0
0.0
0.0
0.0
0.0
0.0
0.0
0.0
0.0
0.0
0.0
0.0
0.0
0.0
0.0
0.0
0.0
0.0
0.0
0.0
0.0
0.0
0.0
0.0
0.0
0.0
0.0
0.0
0.0
0.0
0.0
0.0
0.0
0.0
0.0
0.0
0.0
0.0
0.0
0.0
0.0
0.0
0.0
0.0
0.0
0.0
0.0
0.0
0.0
0.0
0.0
0.0
0.0
0.0
0.0
0.0
0.0
0.0
0.0
0.0
0.0
0.0
0.0
0.0
0.0
0.0
0.0
0.0
0.0
0.0
0.0
0.0
0.0
0.0
0.0
0.0
0.0
0.0
0.0
0.0
0.0
0.0
0.0
0.0
0.0
0.0
0.0
0.0
0.0
0.0
0.0
0.0
0.0
0.0
0.0
0.0
0.0
-0.8698486
-0.019819537
0.02761848
-0.019819537
-0.019819537
-0.019819537
-0.019819537
-0.019819537
-0.019819537
-0.019819537
-0.019819537
-0.019819537
-0.019819537
-0.019819537
-0.019819537
-0.019819537
-0.019819537
-0.019819537
-0.019819537
-0.019819537
-0.019819537
-0.019819537
-0.019819537
-0.019819537
-0.019819537
-0.019819537
-0.019819537
4.9636613E-13
4.9636613E-13
4.9636613E-13
4.9636613E-13
4.9636613E-13
4.9636613E-13
4.9636613E-13
4.9636613E-13
4.9636613E-13
4.9636613E-13
4.9636613E-13
4.9636613E-13
4.9636613E-13
4.9636613E-13
4.9636613E-13
4.9636613E-13
4.9636613E-13
4.9636613E-13
4.9636613E-13
4.9636613E-13
4.9636613E-13
4.9636613E-13
4.9636613E-13
4.9636613E-13
4.9636613E-13
4.9636613E-13
4.9636613E-13
4.9636613E-13
4.9636613E-13
4.9636613E-13
4.9636613E-13
4.9636613E-13
4.9636613E-13
4.9636613E-13
4.9636613E-13
4.9636613E-13
4.9636613E-13
4.9636613E-13
4.9636613E-13
4.9636613E-13
4.9636613E-13
4.9636613E-13
4.9636613E-13
4.9636613E-13
4.9636613E-13
4.9636613E-13
4.9636613E-13
4.9636613E-13
4.9636613E-13
4.9636613E-13
4.9636613E-13
4.9636613E-13
4.9636613E-13
4.9636613E-13
4.9636613E-13
4.9636613E-13
4.9636613E-13
4.9636613E-13
4.9636613E-13
4.9636613E-13
4.9636613E-13
4.9636613E-13
4.9636613E-13
4.9636613E-13
4.9636613E-13
4.9636613E-13
4.9636613E-13
4.9636613E-13
4.9636613E-13
4.9636613E-13
4.9636613E-13
4.9636613E-13
4.9636613E-13
4.9636613E-13
4.9636613E-13
4.9636613E-13
4.9636613E-13
4.9636613E-13
4.9636613E-13
4.9636613E-13
4.9636613E-13
4.9636613E-13
4.9636613E-13
4.9636613E-13
4.9636613E-13
4.9636613E-13
4.9636613E-13
4.9636613E-13
4.9636613E-13
4.9636613E-13
4.9636613E-13
4.9636613E-13
4.9636613E-13
4.9636613E-13
4.9636613E-13
4.9636613E-13
4.9636613E-13
4.9636613E-13
4.9636613E-13
4.9636613E-13
4.9636613E-13
4.9636613E-13
4.9636613E-13
4.9636613E-13
4.9636613E-13
4.9636613E-13
4.9636613E-13
4.9636613E-13
4.9636613E-13
4.9636613E-13
4.9636613E-13
4.9636613E-13
4.9636613E-13
4.9636613E-13
4.9636613E-13
4.9636613E-13
4.9636613E-13
4.9636613E-13
4.9636613E-13
4.9636613E-13
4.9636613E-13
4.9636613E-13
4.9636613E-13
4.9636613E-13
4.9636613E-13
4.9636613E-13
4.9636613E-13
4.9636613E-13
4.9636613E-13
4.9636613E-13
4.9636613E-13
4.9636613E-13
4.9636613E-13
4.9636613E-13
4.9636613E-13
4.9636613E-13
4.9636613E-13
4.9636613E-13
4.9636613E-13
4.9636613E-13
4.9636613E-13
4.9636613E-13
4.9636613E-13
4.9636613E-13
4.9636613E-13
4.9636613E-13
4.9636613E-13
4.9636613E-13
4.9636613E-13
4.9636613E-13
4.9636613E-13
4.9636613E-13
4.9636613E-13
4.9636613E-13
4.9636613E-13
4.9636613E-13
4.9636613E-13
4.9636613E-13
4.9636613E-13
4.9636613E-13
4.9636613E-13
4.9636613E-13
4.9636613E-13
4.9636613E-13
4.9636613E-13
4.9636613E-13
4.9636613E-13
4.9636613E-13
4.9636613E-13
4.9636613E-13
4.9636613E-13
4.9636613E-13
4.9636613E-13
4.9636613E-13
4.9636613E-13
4.9636613E-13
4.9636613E-13
4.9636613E-13
4.9636613E-13
4.9636613E-13
4.9636613E-13
4.9636613E-13
4.9636613E-13
4.9636613E-13
4.9636613E-13
4.9636613E-13
4.9636613E-13
4.9636613E-13
4.9636613E-13
4.9636613E-13
4.9636613E-13
4.9636613E-13
4.9636613E-13
4.9636613E-13
4.9636613E-13
4.9636613E-13
4.9636613E-13
4.9636613E-13
4.9636613E-13
4.9636613E-13
4.9636613E-13
4.9636613E-13
4.9636613E-13
4.9636613E-13
4.9636613E-13
4.9636613E-13
4.9636613E-13
4.9636613E-13
4.9636613E-13
4.9636613E-13
4.9636613E-13
4.9636613E-13
4.9636613E-13
4.9636613E-13
4.9636613E-13
4.9636613E-13
4.9636613E-13
4.9636613E-13
4.9636613E-13
4.9636613E-13
4.9636613E-13
4.9636613E-13
4.9636613E-13
4.9636613E-13
4.9636613E-13
4.9636613E-13
4.9636613E-13
4.9636613E-13
4.9636613E-13
4.9636613E-13
4.9636613E-13
4.9636613E-13
4.9636613E-13
4.9636613E-13
4.9636613E-13
4.9636613E-13
4.9636613E-13
4.9636613E-13
4.9636613E-13
4.9636613E-13
4.9636613E-13
4.9636613E-13
4.9636613E-13
4.9636613E-13
4.9636613E-13
4.9636613E-13
4.9636613E-13
4.9636613E-13
4.9636613E-13
4.9636613E-13
4.9636613E-13
4.9636613E-13
4.9636613E-13
4.9636613E-13
4.9636613E-13
4.9636613E-13
4.9636613E-13
4.9636613E-13
4.9636613E-13
4.9636613E-13
4.9636613E-13
4.9636613E-13
4.9636613E-13
4.9636613E-13
4.9636613E-13
4.9636613E-13
4.9636613E-13
4.9636613E-13
4.9636613E-13
4.9636613E-13
4.9636613E-13
4.9636613E-13
4.9636613E-13
4.9636613E-13
4.9636613E-13
4.9636613E-13
4.9636613E-13
4.9636613E-13
4.9636613E-13
4.9636613E-13
4.9636613E-13
4.9636613E-13
4.9636613E-13
4.9636613E-13
4.9636613E-13
4.9636613E-13
4.9636613E-13
4.9636613E-13
4.9636613E-13
4.9636613E-13
4.9636613E-13
4.9636613E-13
4.9636613E-13
4.9636613E-13
4.9636613E-13
4.9636613E-13
4.9636613E-13
4.9636613E-13
4.9636613E-13
4.9636613E-13
4.9636613E-13
4.9636613E-13
4.9636613E-13
4.9636613E-13
4.9636613E-13
4.9636613E-13
4.9636613E-13
4.9636613E-13
4.9636613E-13
4.9636613E-13
4.9636613E-13
4.9636613E-13
4.9636613E-13
4.9636613E-13
4.9636613E-13
4.9636613E-13
4.9636613E-13
4.9636613E-13
4.9636613E-13
4.9636613E-13
4.9636613E-13
4.9636613E-13
4.9636613E-13
4.9636613E-13
4.9636613E-13
4.9636613E-13
4.9636613E-13
4.9636613E-13
4.9636613E-13
4.9636613E-13
4.9636613E-13
4.9636613E-13
4.9636613E-13
4.9636613E-13
4.9636613E-13
4.9636613E-13
4.9636613E-13
4.9636613E-13
4.9636613E-13
4.9636613E-13
4.9636613E-13
4.9636613E-13
4.9636613E-13
4.9636613E-13
4.9636613E-13
4.9636613E-13
4.9636613E-13
4.9636613E-13
4.9636613E-13
4.9636613E-13
4.9636613E-13
4.9636613E-13
4.9636613E-13
4.9636613E-13
4.9636613E-13
4.9636613E-13
4.9636613E-13
4.9636613E-13
4.9636613E-13
4.9636613E-13
4.9636613E-13
4.9636613E-13
4.9636613E-13
4.9636613E-13
4.9636613E-13
4.9636613E-13
4.9636613E-13
4.9636613E-13
4.9636613E-13
4.9636613E-13
4.9636613E-13
4.9636613E-13
4.9636613E-13
4.9636613E-13
4.9636613E-13
4.9636613E-13
4.9636613E-13
4.9636613E-13
4.9636613E-13
4.9636613E-13
4.9636613E-13
4.9636613E-13
4.9636613E-13
4.9636613E-13
4.9636613E-13
4.9636613E-13
4.9636613E-13
4.9636613E-13
4.9636613E-13
4.9636613E-13
4.9636613E-13
4.9636613E-13
4.9636613E-13
4.9636613E-13
4.9636613E-13
4.9636613E-13
4.9636613E-13
4.9636613E-13
4.9636613E-13
4.9636613E-13
4.9636613E-13
4.9636613E-13
4.9636613E-13
4.9636613E-13
4.9636613E-13
4.9636613E-13
4.9636613E-13
4.9636613E-13
4.9636613E-13
4.9636613E-13
4.9636613E-13
4.9636613E-13
4.9636613E-13
4.9636613E-13
4.9636613E-13
4.9636613E-13
4.9636613E-13
4.9636613E-13
4.9636613E-13
4.9636613E-13
4.9636613E-13
4.9636613E-13
4.9636613E-13
4.9636613E-13
4.9636613E-13
4.9636613E-13
4.9636613E-13
4.9636613E-13
4.9636613E-13
4.9636613E-13
4.9636613E-13
4.9636613E-13
4.9636613E-13
4.9636613E-13
4.9636613E-13
4.9636613E-13
4.9636613E-13
4.9636613E-13
4.9636613E-13
4.9636613E-13
4.9636613E-13
4.9636613E-13
4.9636613E-13
4.9636613E-13
4.9636613E-13
4.9636613E-13
4.9636613E-13
4.9636613E-13
4.9636613E-13
4.9636613E-13
4.9636613E-13
4.9636613E-13
4.9636613E-13
4.9636613E-13
4.9636613E-13
4.9636613E-13
4.9636613E-13
4.9636613E-13
4.9636613E-13
4.9636613E-13
4.9636613E-13
4.9636613E-13
4.9636613E-13
4.9636613E-13
4.9636613E-13
4.9636613E-13
4.9636613E-13
4.9636613E-13
4.9636613E-13
4.9636613E-13
4.9636613E-13
4.9636613E-13
4.9636613E-13
4.9636613E-13
0.0
0.0
0.0
0.0
0.0
0.0
0.0
0.0
0.0
0.0
0.0
0.0
0.0
0.0
0.0
0.0
0.0
0.0
0.0
0.0
0.0
0.0
0.0
0.0
0.0
0.0
0.0
0.0
0.0
0.0
0.0
0.0
0.0
0.0
0.0
0.0
0.0
0.0
0.0
0.0
0.0
0.0
0.0
0.0
0.0
0.0
0.0
0.0
0.0
0.0
0.0
0.0
0.0
0.0
0.0
0.0
0.0
0.0
0.0
0.0
0.0
0.0
0.0
0.0
0.0
0.0
0.0
0.0
0.0
0.0
0.0
0.0
0.0
0.0
0.0
0.0
0.0
0.0
0.0
0.0
0.0
0.0
0.0
0.0
0.0
0.0
0.0
0.0
0.0
0.0
0.0
0.0
0.0
0.0
0.0
0.0
0.0
0.0
0.0
0.0
0.0
0.0
0.0
0.0
0.0
0.0
0.0
0.0
0.0
0.0
0.0
0.0
0.0
0.0
0.0
0.0
0.0
0.0
0.0
0.0
0.0
0.0
0.0
0.0
0.0
0.0
0.0
0.0
0.0
0.0
0.0
0.0
0.0
0.0
0.0
0.0
0.0
0.0
0.0
0.0
0.0
0.0
0.0
0.0
0.0
0.0
0.0
0.0
0.0
0.0
0.0
0.0
0.0
0.0
0.0
0.0
0.0
0.0
0.0
0.0
0.0
0.0
0.0
0.0
0.0
0.0
0.0
0.0
0.0
0.0
0.0
0.0
0.0
0.0
0.0
0.0
0.0
0.0
0.0
0.0
0.0
0.0
0.0
0.0
0.0
0.0
0.0
0.0
0.0
0.0
0.0
0.0
0.0
0.0
0.0
0.0
0.0
0.0
0.0
0.0
0.0
0.0
0.0
0.0
0.0
0.0
0.0
0.0
0.0
0.0
0.0
0.0
0.0
0.0
0.0
0.0
0.0
0.0
0.0
0.0
0.0
0.0
0.0
0.0
0.0
0.0
0.0
0.0
0.0
0.0
0.0
0.0
0.0
0.0
0.0
0.0
0.0
0.0
0.0
0.0
0.0
0.0
0.0
0.0
0.0
0.0
0.0
0.0
0.0
0.0
0.0
0.0
0.0
0.0
0.0
0.0
0.0
0.0
0.0
0.0
0.0
0.0
0.0
0.0
0.0
0.0
0.0
0.0
0.0
0.0
0.0
0.0
0.0
0.0
0.0
0.0
0.0
0.0
0.0
0.0
0.0
0.0
0.0
0.0
0.0
0.0
0.0
0.0
0.0
0.0
0.0
0.0
0.0
0.0
0.0
0.0
0.0
0.0
0.0
0.0
0.0
0.0
0.0
0.0
0.0
0.0
0.0
0.0
0.0
0.0
0.0
0.0
0.0
0.0
0.0
0.0
0.0
0.0
0.0
0.0
0.0
0.0
0.0
0.0
0.0
0.0
0.0
0.0
0.0
0.0
0.0
0.0
0.0
0.0
0.0
0.0
0.0
0.0
0.0
0.0
0.0
0.0
0.0
0.0
0.0
0.0
0.0
0.0
0.0
0.0
0.0
0.0
0.0
0.0
0.0
0.0
0.0
0.0
0.0
0.0
0.0
0.0
0.0
0.0
0.0
0.0
0.0
0.0
0.0
0.0
0.0
0.0
0.0
0.0
0.0
0.0
0.0
0.0
0.0
0.0
0.0
0.0
0.0
0.0
0.0
0.0
0.0
0.0
0.0
0.0
0.0
0.0
0.0
0.0
0.0
0.0
0.0
0.0
0.0
0.0
-0.8698486
-0.019819537
0.02761848
-0.019819537
-0.019819537
-0.019819537
-0.019819537
-0.019819537
-0.019819537
-0.019819537
-0.019819537
-0.019819537
-0.019819537
-0.019819537
-0.019819537
-0.019819537
-0.019819537
-0.019819537
-0.019819537
-0.019819537
-0.019819537
-0.019819537
-0.019819537
-0.019819537
-0.019819537
-0.019819537
-0.019819537
4.9636613E-13
4.9636613E-13
4.9636613E-13
4.9636613E-13
4.9636613E-13
4.9636613E-13
4.9636613E-13
4.9636613E-13
4.9636613E-13
4.9636613E-13
4.9636613E-13
4.9636613E-13
4.9636613E-13
4.9636613E-13
4.9636613E-13
4.9636613E-13
4.9636613E-13
4.9636613E-13
4.9636613E-13
4.9636613E-13
4.9636613E-13
4.9636613E-13
4.9636613E-13
4.9636613E-13
4.9636613E-13
4.9636613E-13
4.9636613E-13
4.9636613E-13
4.9636613E-13
4.9636613E-13
4.9636613E-13
4.9636613E-13
4.9636613E-13
4.9636613E-13
4.9636613E-13
4.9636613E-13
4.9636613E-13
4.9636613E-13
4.9636613E-13
4.9636613E-13
4.9636613E-13
4.9636613E-13
4.9636613E-13
4.9636613E-13
4.9636613E-13
4.9636613E-13
4.9636613E-13
4.9636613E-13
4.9636613E-13
4.9636613E-13
4.9636613E-13
4.9636613E-13
4.9636613E-13
4.9636613E-13
4.9636613E-13
4.9636613E-13
4.9636613E-13
4.9636613E-13
4.9636613E-13
4.9636613E-13
4.9636613E-13
4.9636613E-13
4.9636613E-13
4.9636613E-13
4.9636613E-13
4.9636613E-13
4.9636613E-13
4.9636613E-13
4.9636613E-13
4.9636613E-13
4.9636613E-13
4.9636613E-13
4.9636613E-13
4.9636613E-13
4.9636613E-13
4.9636613E-13
4.9636613E-13
4.9636613E-13
4.9636613E-13
4.9636613E-13
4.9636613E-13
4.9636613E-13
4.9636613E-13
4.9636613E-13
4.9636613E-13
4.9636613E-13
4.9636613E-13
4.9636613E-13
4.9636613E-13
4.9636613E-13
4.9636613E-13
4.9636613E-13
4.9636613E-13
4.9636613E-13
4.9636613E-13
4.9636613E-13
4.9636613E-13
4.9636613E-13
4.9636613E-13
4.9636613E-13
4.9636613E-13
4.9636613E-13
4.9636613E-13
4.9636613E-13
4.9636613E-13
4.9636613E-13
4.9636613E-13
4.9636613E-13
4.9636613E-13
4.9636613E-13
4.9636613E-13
4.9636613E-13
4.9636613E-13
4.9636613E-13
4.9636613E-13
4.9636613E-13
4.9636613E-13
4.9636613E-13
4.9636613E-13
4.9636613E-13
4.9636613E-13
4.9636613E-13
4.9636613E-13
4.9636613E-13
4.9636613E-13
4.9636613E-13
4.9636613E-13
4.9636613E-13
4.9636613E-13
4.9636613E-13
4.9636613E-13
4.9636613E-13
4.9636613E-13
4.9636613E-13
4.9636613E-13
4.9636613E-13
4.9636613E-13
4.9636613E-13
4.9636613E-13
4.9636613E-13
4.9636613E-13
4.9636613E-13
4.9636613E-13
4.9636613E-13
4.9636613E-13
4.9636613E-13
4.9636613E-13
4.9636613E-13
4.9636613E-13
4.9636613E-13
4.9636613E-13
4.9636613E-13
4.9636613E-13
4.9636613E-13
4.9636613E-13
4.9636613E-13
4.9636613E-13
4.9636613E-13
4.9636613E-13
4.9636613E-13
4.9636613E-13
4.9636613E-13
4.9636613E-13
4.9636613E-13
4.9636613E-13
4.9636613E-13
4.9636613E-13
4.9636613E-13
4.9636613E-13
4.9636613E-13
4.9636613E-13
4.9636613E-13
4.9636613E-13
4.9636613E-13
4.9636613E-13
4.9636613E-13
4.9636613E-13
4.9636613E-13
4.9636613E-13
4.9636613E-13
4.9636613E-13
4.9636613E-13
4.9636613E-13
4.9636613E-13
4.9636613E-13
4.9636613E-13
4.9636613E-13
4.9636613E-13
4.9636613E-13
4.9636613E-13
4.9636613E-13
4.9636613E-13
4.9636613E-13
4.9636613E-13
4.9636613E-13
4.9636613E-13
4.9636613E-13
4.9636613E-13
4.9636613E-13
4.9636613E-13
4.9636613E-13
4.9636613E-13
4.9636613E-13
4.9636613E-13
4.9636613E-13
4.9636613E-13
4.9636613E-13
4.9636613E-13
4.9636613E-13
4.9636613E-13
4.9636613E-13
4.9636613E-13
4.9636613E-13
4.9636613E-13
4.9636613E-13
4.9636613E-13
4.9636613E-13
4.9636613E-13
4.9636613E-13
4.9636613E-13
4.9636613E-13
4.9636613E-13
4.9636613E-13
4.9636613E-13
4.9636613E-13
4.9636613E-13
4.9636613E-13
4.9636613E-13
4.9636613E-13
4.9636613E-13
4.9636613E-13
4.9636613E-13
4.9636613E-13
4.9636613E-13
4.9636613E-13
4.9636613E-13
4.9636613E-13
4.9636613E-13
4.9636613E-13
4.9636613E-13
4.9636613E-13
4.9636613E-13
4.9636613E-13
4.9636613E-13
4.9636613E-13
4.9636613E-13
4.9636613E-13
4.9636613E-13
4.9636613E-13
4.9636613E-13
4.9636613E-13
4.9636613E-13
4.9636613E-13
4.9636613E-13
4.9636613E-13
4.9636613E-13
4.9636613E-13
4.9636613E-13
4.9636613E-13
4.9636613E-13
4.9636613E-13
4.9636613E-13
4.9636613E-13
4.9636613E-13
4.9636613E-13
4.9636613E-13
4.9636613E-13
4.9636613E-13
4.9636613E-13
4.9636613E-13
4.9636613E-13
4.9636613E-13
4.9636613E-13
4.9636613E-13
4.9636613E-13
4.9636613E-13
4.9636613E-13
4.9636613E-13
4.9636613E-13
4.9636613E-13
4.9636613E-13
4.9636613E-13
4.9636613E-13
4.9636613E-13
4.9636613E-13
4.9636613E-13
4.9636613E-13
4.9636613E-13
4.9636613E-13
4.9636613E-13
4.9636613E-13
4.9636613E-13
4.9636613E-13
4.9636613E-13
4.9636613E-13
4.9636613E-13
4.9636613E-13
4.9636613E-13
4.9636613E-13
4.9636613E-13
4.9636613E-13
4.9636613E-13
4.9636613E-13
4.9636613E-13
4.9636613E-13
4.9636613E-13
4.9636613E-13
4.9636613E-13
4.9636613E-13
4.9636613E-13
4.9636613E-13
4.9636613E-13
4.9636613E-13
4.9636613E-13
4.9636613E-13
4.9636613E-13
4.9636613E-13
4.9636613E-13
4.9636613E-13
4.9636613E-13
4.9636613E-13
4.9636613E-13
4.9636613E-13
4.9636613E-13
4.9636613E-13
4.9636613E-13
4.9636613E-13
4.9636613E-13
4.9636613E-13
4.9636613E-13
4.9636613E-13
4.9636613E-13
4.9636613E-13
4.9636613E-13
4.9636613E-13
4.9636613E-13
4.9636613E-13
4.9636613E-13
4.9636613E-13
4.9636613E-13
4.9636613E-13
4.9636613E-13
4.9636613E-13
4.9636613E-13
4.9636613E-13
4.9636613E-13
4.9636613E-13
4.9636613E-13
4.9636613E-13
4.9636613E-13
4.9636613E-13
4.9636613E-13
4.9636613E-13
4.9636613E-13
4.9636613E-13
4.9636613E-13
4.9636613E-13
4.9636613E-13
4.9636613E-13
4.9636613E-13
4.9636613E-13
4.9636613E-13
4.9636613E-13
4.9636613E-13
4.9636613E-13
4.9636613E-13
4.9636613E-13
4.9636613E-13
4.9636613E-13
4.9636613E-13
4.9636613E-13
4.9636613E-13
4.9636613E-13
4.9636613E-13
4.9636613E-13
4.9636613E-13
4.9636613E-13
4.9636613E-13
4.9636613E-13
4.9636613E-13
4.9636613E-13
4.9636613E-13
4.9636613E-13
4.9636613E-13
4.9636613E-13
4.9636613E-13
4.9636613E-13
4.9636613E-13
4.9636613E-13
4.9636613E-13
4.9636613E-13
4.9636613E-13
4.9636613E-13
4.9636613E-13
4.9636613E-13
4.9636613E-13
4.9636613E-13
4.9636613E-13
4.9636613E-13
4.9636613E-13
4.9636613E-13
4.9636613E-13
4.9636613E-13
4.9636613E-13
4.9636613E-13
4.9636613E-13
4.9636613E-13
4.9636613E-13
4.9636613E-13
4.9636613E-13
4.9636613E-13
4.9636613E-13
4.9636613E-13
4.9636613E-13
4.9636613E-13
4.9636613E-13
4.9636613E-13
4.9636613E-13
4.9636613E-13
4.9636613E-13
4.9636613E-13
4.9636613E-13
4.9636613E-13
4.9636613E-13
4.9636613E-13
4.9636613E-13
4.9636613E-13
4.9636613E-13
4.9636613E-13
4.9636613E-13
4.9636613E-13
4.9636613E-13
4.9636613E-13
4.9636613E-13
4.9636613E-13
4.9636613E-13
4.9636613E-13
4.9636613E-13
4.9636613E-13
4.9636613E-13
4.9636613E-13
4.9636613E-13
4.9636613E-13
4.9636613E-13
4.9636613E-13
4.9636613E-13
4.9636613E-13
4.9636613E-13
4.9636613E-13
4.9636613E-13
4.9636613E-13
4.9636613E-13
4.9636613E-13
4.9636613E-13
4.9636613E-13
4.9636613E-13
4.9636613E-13
4.9636613E-13
4.9636613E-13
4.9636613E-13
4.9636613E-13
4.9636613E-13
4.9636613E-13
4.9636613E-13
4.9636613E-13
4.9636613E-13
4.9636613E-13
4.9636613E-13
4.9636613E-13
4.9636613E-13
4.9636613E-13
4.9636613E-13
4.9636613E-13
4.9636613E-13
0.0
0.0
0.0
0.0
0.0
0.0
0.0
0.0
0.0
0.0
0.0
0.0
0.0
0.0
0.0
0.0
0.0
0.0
0.0
0.0
0.0
0.0
0.0
0.0
0.0
0.0
0.0
0.0
0.0
0.0
0.0
0.0
0.0
0.0
0.0
0.0
0.0
0.0
0.0
0.0
0.0
0.0
0.0
0.0
0.0
0.0
0.0
0.0
0.0
0.0
0.0
0.0
0.0
0.0
0.0
0.0
0.0
0.0
0.0
0.0
0.0
0.0
0.0
0.0
0.0
0.0
0.0
0.0
0.0
0.0
0.0
0.0
0.0
0.0
0.0
0.0
0.0
0.0
0.0
0.0
0.0
0.0
0.0
0.0
0.0
0.0
0.0
0.0
0.0
0.0
0.0
0.0
0.0
0.0
0.0
0.0
0.0
0.0
0.0
0.0
0.0
0.0
0.0
0.0
0.0
0.0
0.0
0.0
0.0
0.0
0.0
0.0
0.0
0.0
0.0
0.0
0.0
0.0
0.0
0.0
0.0
0.0
0.0
0.0
0.0
0.0
0.0
0.0
0.0
0.0
0.0
0.0
0.0
0.0
0.0
0.0
0.0
0.0
0.0
0.0
0.0
0.0
0.0
0.0
0.0
0.0
0.0
0.0
0.0
0.0
0.0
0.0
0.0
0.0
0.0
0.0
0.0
0.0
0.0
0.0
0.0
0.0
0.0
0.0
0.0
0.0
0.0
0.0
0.0
0.0
0.0
0.0
0.0
0.0
0.0
0.0
0.0
0.0
0.0
0.0
0.0
0.0
0.0
0.0
0.0
0.0
0.0
0.0
0.0
0.0
0.0
0.0
0.0
0.0
0.0
0.0
0.0
0.0
0.0
0.0
0.0
0.0
0.0
0.0
0.0
0.0
0.0
0.0
0.0
0.0
0.0
0.0
0.0
0.0
0.0
0.0
0.0
0.0
0.0
0.0
0.0
0.0
0.0
0.0
0.0
0.0
0.0
0.0
0.0
0.0
0.0
0.0
0.0
0.0
0.0
0.0
0.0
0.0
0.0
0.0
0.0
0.0
0.0
0.0
0.0
0.0
0.0
0.0
0.0
0.0
0.0
0.0
0.0
0.0
0.0
0.0
0.0
0.0
0.0
0.0
0.0
0.0
0.0
0.0
0.0
0.0
0.0
0.0
0.0
0.0
0.0
0.0
0.0
0.0
0.0
0.0
0.0
0.0
0.0
0.0
0.0
0.0
0.0
0.0
0.0
0.0
0.0
0.0
0.0
0.0
0.0
0.0
0.0
0.0
0.0
0.0
0.0
0.0
0.0
0.0
0.0
0.0
0.0
0.0
0.0
0.0
0.0
0.0
0.0
0.0
0.0
0.0
0.0
0.0
0.0
0.0
0.0
0.0
0.0
0.0
0.0
0.0
0.0
0.0
0.0
0.0
0.0
0.0
0.0
0.0
0.0
0.0
0.0
0.0
0.0
0.0
0.0
0.0
0.0
0.0
0.0
0.0
0.0
0.0
0.0
0.0
0.0
0.0
0.0
0.0
0.0
0.0
0.0
0.0
0.0
0.0
0.0
0.0
0.0
0.0
0.0
0.0
0.0
0.0
0.0
0.0
0.0
0.0
0.0
0.0
0.0
0.0
0.0
0.0
0.0
0.0
0.0
0.0
0.0
0.0
0.0
0.0
0.0
0.0
0.0
0.0
0.0
0.0
0.0
0.0
0.0
0.0
0.0
0.0
0.0
0.0
0.0
0.0
0.0
0.0
-0.8698486
-0.019819537
0.02761848
-0.019819537
-0.019819537
-0.019819537
-0.019819537
-0.019819537
-0.019819537
-0.019819537
-0.019819537
-0.019819537
-0.019819537
-0.019819537
-0.019819537
-0.019819537
-0.019819537
-0.019819537
-0.019819537
-0.019819537
-0.019819537
-0.019819537
-0.019819537
-0.019819537
-0.019819537
-0.019819537
-0.019819537
4.9636613E-13
4.9636613E-13
4.9636613E-13
4.9636613E-13
4.9636613E-13
4.9636613E-13
4.9636613E-13
4.9636613E-13
4.9636613E-13
4.9636613E-13
4.9636613E-13
4.9636613E-13
4.9636613E-13
4.9636613E-13
4.9636613E-13
4.9636613E-13
4.9636613E-13
4.9636613E-13
4.9636613E-13
4.9636613E-13
4.9636613E-13
4.9636613E-13
4.9636613E-13
4.9636613E-13
4.9636613E-13
4.9636613E-13
4.9636613E-13
4.9636613E-13
4.9636613E-13
4.9636613E-13
4.9636613E-13
4.9636613E-13
4.9636613E-13
4.9636613E-13
4.9636613E-13
4.9636613E-13
4.9636613E-13
4.9636613E-13
4.9636613E-13
4.9636613E-13
4.9636613E-13
4.9636613E-13
4.9636613E-13
4.9636613E-13
4.9636613E-13
4.9636613E-13
4.9636613E-13
4.9636613E-13
4.9636613E-13
4.9636613E-13
4.9636613E-13
4.9636613E-13
4.9636613E-13
4.9636613E-13
4.9636613E-13
4.9636613E-13
4.9636613E-13
4.9636613E-13
4.9636613E-13
4.9636613E-13
4.9636613E-13
4.9636613E-13
4.9636613E-13
4.9636613E-13
4.9636613E-13
4.9636613E-13
4.9636613E-13
4.9636613E-13
4.9636613E-13
4.9636613E-13
4.9636613E-13
4.9636613E-13
4.9636613E-13
4.9636613E-13
4.9636613E-13
4.9636613E-13
4.9636613E-13
4.9636613E-13
4.9636613E-13
4.9636613E-13
4.9636613E-13
4.9636613E-13
4.9636613E-13
4.9636613E-13
4.9636613E-13
4.9636613E-13
4.9636613E-13
4.9636613E-13
4.9636613E-13
4.9636613E-13
4.9636613E-13
4.9636613E-13
4.9636613E-13
4.9636613E-13
4.9636613E-13
4.9636613E-13
4.9636613E-13
4.9636613E-13
4.9636613E-13
4.9636613E-13
4.9636613E-13
4.9636613E-13
4.9636613E-13
4.9636613E-13
4.9636613E-13
4.9636613E-13
4.9636613E-13
4.9636613E-13
4.9636613E-13
4.9636613E-13
4.9636613E-13
4.9636613E-13
4.9636613E-13
4.9636613E-13
4.9636613E-13
4.9636613E-13
4.9636613E-13
4.9636613E-13
4.9636613E-13
4.9636613E-13
4.9636613E-13
4.9636613E-13
4.9636613E-13
4.9636613E-13
4.9636613E-13
4.9636613E-13
4.9636613E-13
4.9636613E-13
4.9636613E-13
4.9636613E-13
4.9636613E-13
4.9636613E-13
4.9636613E-13
4.9636613E-13
4.9636613E-13
4.9636613E-13
4.9636613E-13
4.9636613E-13
4.9636613E-13
4.9636613E-13
4.9636613E-13
4.9636613E-13
4.9636613E-13
4.9636613E-13
4.9636613E-13
4.9636613E-13
4.9636613E-13
4.9636613E-13
4.9636613E-13
4.9636613E-13
4.9636613E-13
4.9636613E-13
4.9636613E-13
4.9636613E-13
4.9636613E-13
4.9636613E-13
4.9636613E-13
4.9636613E-13
4.9636613E-13
4.9636613E-13
4.9636613E-13
4.9636613E-13
4.9636613E-13
4.9636613E-13
4.9636613E-13
4.9636613E-13
4.9636613E-13
4.9636613E-13
4.9636613E-13
4.9636613E-13
4.9636613E-13
4.9636613E-13
4.9636613E-13
4.9636613E-13
4.9636613E-13
4.9636613E-13
4.9636613E-13
4.9636613E-13
4.9636613E-13
4.9636613E-13
4.9636613E-13
4.9636613E-13
4.9636613E-13
4.9636613E-13
4.9636613E-13
4.9636613E-13
4.9636613E-13
4.9636613E-13
4.9636613E-13
4.9636613E-13
4.9636613E-13
4.9636613E-13
4.9636613E-13
4.9636613E-13
4.9636613E-13
4.9636613E-13
4.9636613E-13
4.9636613E-13
4.9636613E-13
4.9636613E-13
4.9636613E-13
4.9636613E-13
4.9636613E-13
4.9636613E-13
4.9636613E-13
4.9636613E-13
4.9636613E-13
4.9636613E-13
4.9636613E-13
4.9636613E-13
4.9636613E-13
4.9636613E-13
4.9636613E-13
4.9636613E-13
4.9636613E-13
4.9636613E-13
4.9636613E-13
4.9636613E-13
4.9636613E-13
4.9636613E-13
4.9636613E-13
4.9636613E-13
4.9636613E-13
4.9636613E-13
4.9636613E-13
4.9636613E-13
4.9636613E-13
4.9636613E-13
4.9636613E-13
4.9636613E-13
4.9636613E-13
4.9636613E-13
4.9636613E-13
4.9636613E-13
4.9636613E-13
4.9636613E-13
4.9636613E-13
4.9636613E-13
4.9636613E-13
4.9636613E-13
4.9636613E-13
4.9636613E-13
4.9636613E-13
4.9636613E-13
4.9636613E-13
4.9636613E-13
4.9636613E-13
4.9636613E-13
4.9636613E-13
4.9636613E-13
4.9636613E-13
4.9636613E-13
4.9636613E-13
4.9636613E-13
4.9636613E-13
4.9636613E-13
4.9636613E-13
4.9636613E-13
4.9636613E-13
4.9636613E-13
4.9636613E-13
4.9636613E-13
4.9636613E-13
4.9636613E-13
4.9636613E-13
4.9636613E-13
4.9636613E-13
4.9636613E-13
4.9636613E-13
4.9636613E-13
4.9636613E-13
4.9636613E-13
4.9636613E-13
4.9636613E-13
4.9636613E-13
4.9636613E-13
4.9636613E-13
4.9636613E-13
4.9636613E-13
4.9636613E-13
4.9636613E-13
4.9636613E-13
4.9636613E-13
4.9636613E-13
4.9636613E-13
4.9636613E-13
4.9636613E-13
4.9636613E-13
4.9636613E-13
4.9636613E-13
4.9636613E-13
4.9636613E-13
4.9636613E-13
4.9636613E-13
4.9636613E-13
4.9636613E-13
4.9636613E-13
4.9636613E-13
4.9636613E-13
4.9636613E-13
4.9636613E-13
4.9636613E-13
4.9636613E-13
4.9636613E-13
4.9636613E-13
4.9636613E-13
4.9636613E-13
4.9636613E-13
4.9636613E-13
4.9636613E-13
4.9636613E-13
4.9636613E-13
4.9636613E-13
4.9636613E-13
4.9636613E-13
4.9636613E-13
4.9636613E-13
4.9636613E-13
4.9636613E-13
4.9636613E-13
4.9636613E-13
4.9636613E-13
4.9636613E-13
4.9636613E-13
4.9636613E-13
4.9636613E-13
4.9636613E-13
4.9636613E-13
4.9636613E-13
4.9636613E-13
4.9636613E-13
4.9636613E-13
4.9636613E-13
4.9636613E-13
4.9636613E-13
4.9636613E-13
4.9636613E-13
4.9636613E-13
4.9636613E-13
4.9636613E-13
4.9636613E-13
4.9636613E-13
4.9636613E-13
4.9636613E-13
4.9636613E-13
4.9636613E-13
4.9636613E-13
4.9636613E-13
4.9636613E-13
4.9636613E-13
4.9636613E-13
4.9636613E-13
4.9636613E-13
4.9636613E-13
4.9636613E-13
4.9636613E-13
4.9636613E-13
4.9636613E-13
4.9636613E-13
4.9636613E-13
4.9636613E-13
4.9636613E-13
4.9636613E-13
4.9636613E-13
4.9636613E-13
4.9636613E-13
4.9636613E-13
4.9636613E-13
4.9636613E-13
4.9636613E-13
4.9636613E-13
4.9636613E-13
4.9636613E-13
4.9636613E-13
4.9636613E-13
4.9636613E-13
4.9636613E-13
4.9636613E-13
4.9636613E-13
4.9636613E-13
4.9636613E-13
4.9636613E-13
4.9636613E-13
4.9636613E-13
4.9636613E-13
4.9636613E-13
4.9636613E-13
4.9636613E-13
4.9636613E-13
4.9636613E-13
4.9636613E-13
4.9636613E-13
4.9636613E-13
4.9636613E-13
4.9636613E-13
4.9636613E-13
4.9636613E-13
4.9636613E-13
4.9636613E-13
4.9636613E-13
4.9636613E-13
4.9636613E-13
4.9636613E-13
4.9636613E-13
4.9636613E-13
4.9636613E-13
4.9636613E-13
4.9636613E-13
4.9636613E-13
4.9636613E-13
4.9636613E-13
4.9636613E-13
4.9636613E-13
4.9636613E-13
4.9636613E-13
4.9636613E-13
4.9636613E-13
4.9636613E-13
4.9636613E-13
4.9636613E-13
4.9636613E-13
4.9636613E-13
4.9636613E-13
4.9636613E-13
4.9636613E-13
4.9636613E-13
4.9636613E-13
4.9636613E-13
4.9636613E-13
4.9636613E-13
4.9636613E-13
4.9636613E-13
4.9636613E-13
4.9636613E-13
4.9636613E-13
4.9636613E-13
4.9636613E-13
4.9636613E-13
4.9636613E-13
4.9636613E-13
4.9636613E-13
4.9636613E-13
4.9636613E-13
4.9636613E-13
4.9636613E-13
4.9636613E-13
4.9636613E-13
4.9636613E-13
4.9636613E-13
4.9636613E-13
4.9636613E-13
4.9636613E-13
4.9636613E-13
4.9636613E-13
4.9636613E-13
4.9636613E-13
4.9636613E-13
4.9636613E-13
4.9636613E-13
4.9636613E-13
4.9636613E-13
4.9636613E-13
4.9636613E-13
4.9636613E-13
4.9636613E-13
4.9636613E-13
4.9636613E-13
4.9636613E-13
4.9636613E-13
4.9636613E-13
4.9636613E-13
4.9636613E-13
4.9636613E-13
4.9636613E-13
0.0
0.0
0.0
0.0
0.0
0.0
0.0
0.0
0.0
0.0
0.0
0.0
0.0
0.0
0.0
0.0
0.0
0.0
0.0
0.0
0.0
0.0
0.0
0.0
0.0
0.0
0.0
0.0
0.0
0.0
0.0
0.0
0.0
0.0
0.0
0.0
0.0
0.0
0.0
0.0
0.0
0.0
0.0
0.0
0.0
0.0
0.0
0.0
0.0
0.0
0.0
0.0
0.0
0.0
0.0
0.0
0.0
0.0
0.0
0.0
0.0
0.0
0.0
0.0
0.0
0.0
0.0
0.0
0.0
0.0
0.0
0.0
0.0
0.0
0.0
0.0
0.0
0.0
0.0
0.0
0.0
0.0
0.0
0.0
0.0
0.0
0.0
0.0
0.0
0.0
0.0
0.0
0.0
0.0
0.0
0.0
0.0
0.0
0.0
0.0
0.0
0.0
0.0
0.0
0.0
0.0
0.0
0.0
0.0
0.0
0.0
0.0
0.0
0.0
0.0
0.0
0.0
0.0
0.0
0.0
0.0
0.0
0.0
0.0
0.0
0.0
0.0
0.0
0.0
0.0
0.0
0.0
0.0
0.0
0.0
0.0
0.0
0.0
0.0
0.0
0.0
0.0
0.0
0.0
0.0
0.0
0.0
0.0
0.0
0.0
0.0
0.0
0.0
0.0
0.0
0.0
0.0
0.0
0.0
0.0
0.0
0.0
0.0
0.0
0.0
0.0
0.0
0.0
0.0
0.0
0.0
0.0
0.0
0.0
0.0
0.0
0.0
0.0
0.0
0.0
0.0
0.0
0.0
0.0
0.0
0.0
0.0
0.0
0.0
0.0
0.0
0.0
0.0
0.0
0.0
0.0
0.0
0.0
0.0
0.0
0.0
0.0
0.0
0.0
0.0
0.0
0.0
0.0
0.0
0.0
0.0
0.0
0.0
0.0
0.0
0.0
0.0
0.0
0.0
0.0
0.0
0.0
0.0
0.0
0.0
0.0
0.0
0.0
0.0
0.0
0.0
0.0
0.0
0.0
0.0
0.0
0.0
0.0
0.0
0.0
0.0
0.0
0.0
0.0
0.0
0.0
0.0
0.0
0.0
0.0
0.0
0.0
0.0
0.0
0.0
0.0
0.0
0.0
0.0
0.0
0.0
0.0
0.0
0.0
0.0
0.0
0.0
0.0
0.0
0.0
0.0
0.0
0.0
0.0
0.0
0.0
0.0
0.0
0.0
0.0
0.0
0.0
0.0
0.0
0.0
0.0
0.0
0.0
0.0
0.0
0.0
0.0
0.0
0.0
0.0
0.0
0.0
0.0
0.0
0.0
0.0
0.0
0.0
0.0
0.0
0.0
0.0
0.0
0.0
0.0
0.0
0.0
0.0
0.0
0.0
0.0
0.0
0.0
0.0
0.0
0.0
0.0
0.0
0.0
0.0
0.0
0.0
0.0
0.0
0.0
0.0
0.0
0.0
0.0
0.0
0.0
0.0
0.0
0.0
0.0
0.0
0.0
0.0
0.0
0.0
0.0
0.0
0.0
0.0
0.0
0.0
0.0
0.0
0.0
0.0
0.0
0.0
0.0
0.0
0.0
0.0
0.0
0.0
0.0
0.0
0.0
0.0
0.0
0.0
0.0
0.0
0.0
0.0
0.0
0.0
0.0
0.0
0.0
0.0
0.0
0.0
0.0
0.0
0.0
0.0
0.0
0.0
0.0
0.0
0.0
0.0
0.0
0.0
0.0
0.0
0.0
0.0
0.0
0.0
0.0
-0.8698486
-0.019819537
0.02761848
-0.019819537
-0.019819537
-0.019819537
-0.019819537
-0.019819537
-0.019819537
-0.019819537
-0.019819537
-0.019819537
-0.019819537
-0.019819537
-0.019819537
-0.019819537
-0.019819537
-0.019819537
-0.019819537
-0.019819537
-0.019819537
-0.019819537
-0.019819537
-0.019819537
-0.019819537
-0.019819537
-0.019819537
4.9636613E-13
4.9636613E-13
4.9636613E-13
4.9636613E-13
4.9636613E-13
4.9636613E-13
4.9636613E-13
4.9636613E-13
4.9636613E-13
4.9636613E-13
4.9636613E-13
4.9636613E-13
4.9636613E-13
4.9636613E-13
4.9636613E-13
4.9636613E-13
4.9636613E-13
4.9636613E-13
4.9636613E-13
4.9636613E-13
4.9636613E-13
4.9636613E-13
4.9636613E-13
4.9636613E-13
4.9636613E-13
4.9636613E-13
4.9636613E-13
4.9636613E-13
4.9636613E-13
4.9636613E-13
4.9636613E-13
4.9636613E-13
4.9636613E-13
4.9636613E-13
4.9636613E-13
4.9636613E-13
4.9636613E-13
4.9636613E-13
4.9636613E-13
4.9636613E-13
4.9636613E-13
4.9636613E-13
4.9636613E-13
4.9636613E-13
4.9636613E-13
4.9636613E-13
4.9636613E-13
4.9636613E-13
4.9636613E-13
4.9636613E-13
4.9636613E-13
4.9636613E-13
4.9636613E-13
4.9636613E-13
4.9636613E-13
4.9636613E-13
4.9636613E-13
4.9636613E-13
4.9636613E-13
4.9636613E-13
4.9636613E-13
4.9636613E-13
4.9636613E-13
4.9636613E-13
4.9636613E-13
4.9636613E-13
4.9636613E-13
4.9636613E-13
4.9636613E-13
4.9636613E-13
4.9636613E-13
4.9636613E-13
4.9636613E-13
4.9636613E-13
4.9636613E-13
4.9636613E-13
4.9636613E-13
4.9636613E-13
4.9636613E-13
4.9636613E-13
4.9636613E-13
4.9636613E-13
4.9636613E-13
4.9636613E-13
4.9636613E-13
4.9636613E-13
4.9636613E-13
4.9636613E-13
4.9636613E-13
4.9636613E-13
4.9636613E-13
4.9636613E-13
4.9636613E-13
4.9636613E-13
4.9636613E-13
4.9636613E-13
4.9636613E-13
4.9636613E-13
4.9636613E-13
4.9636613E-13
4.9636613E-13
4.9636613E-13
4.9636613E-13
4.9636613E-13
4.9636613E-13
4.9636613E-13
4.9636613E-13
4.9636613E-13
4.9636613E-13
4.9636613E-13
4.9636613E-13
4.9636613E-13
4.9636613E-13
4.9636613E-13
4.9636613E-13
4.9636613E-13
4.9636613E-13
4.9636613E-13
4.9636613E-13
4.9636613E-13
4.9636613E-13
4.9636613E-13
4.9636613E-13
4.9636613E-13
4.9636613E-13
4.9636613E-13
4.9636613E-13
4.9636613E-13
4.9636613E-13
4.9636613E-13
4.9636613E-13
4.9636613E-13
4.9636613E-13
4.9636613E-13
4.9636613E-13
4.9636613E-13
4.9636613E-13
4.9636613E-13
4.9636613E-13
4.9636613E-13
4.9636613E-13
4.9636613E-13
4.9636613E-13
4.9636613E-13
4.9636613E-13
4.9636613E-13
4.9636613E-13
4.9636613E-13
4.9636613E-13
4.9636613E-13
4.9636613E-13
4.9636613E-13
4.9636613E-13
4.9636613E-13
4.9636613E-13
4.9636613E-13
4.9636613E-13
4.9636613E-13
4.9636613E-13
4.9636613E-13
4.9636613E-13
4.9636613E-13
4.9636613E-13
4.9636613E-13
4.9636613E-13
4.9636613E-13
4.9636613E-13
4.9636613E-13
4.9636613E-13
4.9636613E-13
4.9636613E-13
4.9636613E-13
4.9636613E-13
4.9636613E-13
4.9636613E-13
4.9636613E-13
4.9636613E-13
4.9636613E-13
4.9636613E-13
4.9636613E-13
4.9636613E-13
4.9636613E-13
4.9636613E-13
4.9636613E-13
4.9636613E-13
4.9636613E-13
4.9636613E-13
4.9636613E-13
4.9636613E-13
4.9636613E-13
4.9636613E-13
4.9636613E-13
4.9636613E-13
4.9636613E-13
4.9636613E-13
4.9636613E-13
4.9636613E-13
4.9636613E-13
4.9636613E-13
4.9636613E-13
4.9636613E-13
4.9636613E-13
4.9636613E-13
4.9636613E-13
4.9636613E-13
4.9636613E-13
4.9636613E-13
4.9636613E-13
4.9636613E-13
4.9636613E-13
4.9636613E-13
4.9636613E-13
4.9636613E-13
4.9636613E-13
4.9636613E-13
4.9636613E-13
4.9636613E-13
4.9636613E-13
4.9636613E-13
4.9636613E-13
4.9636613E-13
4.9636613E-13
4.9636613E-13
4.9636613E-13
4.9636613E-13
4.9636613E-13
4.9636613E-13
4.9636613E-13
4.9636613E-13
4.9636613E-13
4.9636613E-13
4.9636613E-13
4.9636613E-13
4.9636613E-13
4.9636613E-13
4.9636613E-13
4.9636613E-13
4.9636613E-13
4.9636613E-13
4.9636613E-13
4.9636613E-13
4.9636613E-13
4.9636613E-13
4.9636613E-13
4.9636613E-13
4.9636613E-13
4.9636613E-13
4.9636613E-13
4.9636613E-13
4.9636613E-13
4.9636613E-13
4.9636613E-13
4.9636613E-13
4.9636613E-13
4.9636613E-13
4.9636613E-13
4.9636613E-13
4.9636613E-13
4.9636613E-13
4.9636613E-13
4.9636613E-13
4.9636613E-13
4.9636613E-13
4.9636613E-13
4.9636613E-13
4.9636613E-13
4.9636613E-13
4.9636613E-13
4.9636613E-13
4.9636613E-13
4.9636613E-13
4.9636613E-13
4.9636613E-13
4.9636613E-13
4.9636613E-13
4.9636613E-13
4.9636613E-13
4.9636613E-13
4.9636613E-13
4.9636613E-13
4.9636613E-13
4.9636613E-13
4.9636613E-13
4.9636613E-13
4.9636613E-13
4.9636613E-13
4.9636613E-13
4.9636613E-13
4.9636613E-13
4.9636613E-13
4.9636613E-13
4.9636613E-13
4.9636613E-13
4.9636613E-13
4.9636613E-13
4.9636613E-13
4.9636613E-13
4.9636613E-13
4.9636613E-13
4.9636613E-13
4.9636613E-13
4.9636613E-13
4.9636613E-13
4.9636613E-13
4.9636613E-13
4.9636613E-13
4.9636613E-13
4.9636613E-13
4.9636613E-13
4.9636613E-13
4.9636613E-13
4.9636613E-13
4.9636613E-13
4.9636613E-13
4.9636613E-13
4.9636613E-13
4.9636613E-13
4.9636613E-13
4.9636613E-13
4.9636613E-13
4.9636613E-13
4.9636613E-13
4.9636613E-13
4.9636613E-13
4.9636613E-13
4.9636613E-13
4.9636613E-13
4.9636613E-13
4.9636613E-13
4.9636613E-13
4.9636613E-13
4.9636613E-13
4.9636613E-13
4.9636613E-13
4.9636613E-13
4.9636613E-13
4.9636613E-13
4.9636613E-13
4.9636613E-13
4.9636613E-13
4.9636613E-13
4.9636613E-13
4.9636613E-13
4.9636613E-13
4.9636613E-13
4.9636613E-13
4.9636613E-13
4.9636613E-13
4.9636613E-13
4.9636613E-13
4.9636613E-13
4.9636613E-13
4.9636613E-13
4.9636613E-13
4.9636613E-13
4.9636613E-13
4.9636613E-13
4.9636613E-13
4.9636613E-13
4.9636613E-13
4.9636613E-13
4.9636613E-13
4.9636613E-13
4.9636613E-13
4.9636613E-13
4.9636613E-13
4.9636613E-13
4.9636613E-13
4.9636613E-13
4.9636613E-13
4.9636613E-13
4.9636613E-13
4.9636613E-13
4.9636613E-13
4.9636613E-13
4.9636613E-13
4.9636613E-13
4.9636613E-13
4.9636613E-13
4.9636613E-13
4.9636613E-13
4.9636613E-13
4.9636613E-13
4.9636613E-13
4.9636613E-13
4.9636613E-13
4.9636613E-13
4.9636613E-13
4.9636613E-13
4.9636613E-13
4.9636613E-13
4.9636613E-13
4.9636613E-13
4.9636613E-13
4.9636613E-13
4.9636613E-13
4.9636613E-13
4.9636613E-13
4.9636613E-13
4.9636613E-13
4.9636613E-13
4.9636613E-13
4.9636613E-13
4.9636613E-13
4.9636613E-13
4.9636613E-13
4.9636613E-13
4.9636613E-13
4.9636613E-13
4.9636613E-13
4.9636613E-13
4.9636613E-13
4.9636613E-13
4.9636613E-13
4.9636613E-13
4.9636613E-13
4.9636613E-13
4.9636613E-13
4.9636613E-13
4.9636613E-13
4.9636613E-13
4.9636613E-13
4.9636613E-13
4.9636613E-13
4.9636613E-13
4.9636613E-13
4.9636613E-13
4.9636613E-13
4.9636613E-13
4.9636613E-13
4.9636613E-13
4.9636613E-13
4.9636613E-13
4.9636613E-13
4.9636613E-13
4.9636613E-13
4.9636613E-13
4.9636613E-13
4.9636613E-13
4.9636613E-13
4.9636613E-13
4.9636613E-13
4.9636613E-13
4.9636613E-13
4.9636613E-13
4.9636613E-13
4.9636613E-13
4.9636613E-13
4.9636613E-13
4.9636613E-13
4.9636613E-13
4.9636613E-13
4.9636613E-13
4.9636613E-13
4.9636613E-13
4.9636613E-13
4.9636613E-13
4.9636613E-13
4.9636613E-13
4.9636613E-13
4.9636613E-13
4.9636613E-13
4.9636613E-13
4.9636613E-13
4.9636613E-13
4.9636613E-13
4.9636613E-13
4.9636613E-13
4.9636613E-13
4.9636613E-13
4.9636613E-13
4.9636613E-13
4.9636613E-13
4.9636613E-13
0.0
0.0
0.0
0.0
0.0
0.0
0.0
0.0
0.0
0.0
0.0
0.0
0.0
0.0
0.0
0.0
0.0
0.0
0.0
0.0
0.0
0.0
0.0
0.0
0.0
0.0
0.0
0.0
0.0
0.0
0.0
0.0
0.0
0.0
0.0
0.0
0.0
0.0
0.0
0.0
0.0
0.0
0.0
0.0
0.0
0.0
0.0
0.0
0.0
0.0
0.0
0.0
0.0
0.0
0.0
0.0
0.0
0.0
0.0
0.0
0.0
0.0
0.0
0.0
0.0
0.0
0.0
0.0
0.0
0.0
0.0
0.0
0.0
0.0
0.0
0.0
0.0
0.0
0.0
0.0
0.0
0.0
0.0
0.0
0.0
0.0
0.0
0.0
0.0
0.0
0.0
0.0
0.0
0.0
0.0
0.0
0.0
0.0
0.0
0.0
0.0
0.0
0.0
0.0
0.0
0.0
0.0
0.0
0.0
0.0
0.0
0.0
0.0
0.0
0.0
0.0
0.0
0.0
0.0
0.0
0.0
0.0
0.0
0.0
0.0
0.0
0.0
0.0
0.0
0.0
0.0
0.0
0.0
0.0
0.0
0.0
0.0
0.0
0.0
0.0
0.0
0.0
0.0
0.0
0.0
0.0
0.0
0.0
0.0
0.0
0.0
0.0
0.0
0.0
0.0
0.0
0.0
0.0
0.0
0.0
0.0
0.0
0.0
0.0
0.0
0.0
0.0
0.0
0.0
0.0
0.0
0.0
0.0
0.0
0.0
0.0
0.0
0.0
0.0
0.0
0.0
0.0
0.0
0.0
0.0
0.0
0.0
0.0
0.0
0.0
0.0
0.0
0.0
0.0
0.0
0.0
0.0
0.0
0.0
0.0
0.0
0.0
0.0
0.0
0.0
0.0
0.0
0.0
0.0
0.0
0.0
0.0
0.0
0.0
0.0
0.0
0.0
0.0
0.0
0.0
0.0
0.0
0.0
0.0
0.0
0.0
0.0
0.0
0.0
0.0
0.0
0.0
0.0
0.0
0.0
0.0
0.0
0.0
0.0
0.0
0.0
0.0
0.0
0.0
0.0
0.0
0.0
0.0
0.0
0.0
0.0
0.0
0.0
0.0
0.0
0.0
0.0
0.0
0.0
0.0
0.0
0.0
0.0
0.0
0.0
0.0
0.0
0.0
0.0
0.0
0.0
0.0
0.0
0.0
0.0
0.0
0.0
0.0
0.0
0.0
0.0
0.0
0.0
0.0
0.0
0.0
0.0
0.0
0.0
0.0
0.0
0.0
0.0
0.0
0.0
0.0
0.0
0.0
0.0
0.0
0.0
0.0
0.0
0.0
0.0
0.0
0.0
0.0
0.0
0.0
0.0
0.0
0.0
0.0
0.0
0.0
0.0
0.0
0.0
0.0
0.0
0.0
0.0
0.0
0.0
0.0
0.0
0.0
0.0
0.0
0.0
0.0
0.0
0.0
0.0
0.0
0.0
0.0
0.0
0.0
0.0
0.0
0.0
0.0
0.0
0.0
0.0
0.0
0.0
0.0
0.0
0.0
0.0
0.0
0.0
0.0
0.0
0.0
0.0
0.0
0.0
0.0
0.0
0.0
0.0
0.0
0.0
0.0
0.0
0.0
0.0
0.0
0.0
0.0
0.0
0.0
0.0
0.0
0.0
0.0
0.0
0.0
0.0
0.0
0.0
0.0
0.0
0.0
0.0
0.0
0.0
0.0
0.0
0.0
0.0
0.0
0.0
0.0
0.0
0.0
-0.8698486
-0.019819537
0.02761848
-0.019819537
-0.019819537
-0.019819537
-0.019819537
-0.019819537
-0.019819537
-0.019819537
-0.019819537
-0.019819537
-0.019819537
-0.019819537
-0.019819537
-0.019819537
-0.019819537
-0.019819537
-0.019819537
-0.019819537
-0.019819537
-0.019819537
-0.019819537
-0.019819537
-0.019819537
-0.019819537
-0.019819537
4.9636613E-13
4.9636613E-13
4.9636613E-13
4.9636613E-13
4.9636613E-13
4.9636613E-13
4.9636613E-13
4.9636613E-13
4.9636613E-13
4.9636613E-13
4.9636613E-13
4.9636613E-13
4.9636613E-13
4.9636613E-13
4.9636613E-13
4.9636613E-13
4.9636613E-13
4.9636613E-13
4.9636613E-13
4.9636613E-13
4.9636613E-13
4.9636613E-13
4.9636613E-13
4.9636613E-13
4.9636613E-13
4.9636613E-13
4.9636613E-13
4.9636613E-13
4.9636613E-13
4.9636613E-13
4.9636613E-13
4.9636613E-13
4.9636613E-13
4.9636613E-13
4.9636613E-13
4.9636613E-13
4.9636613E-13
4.9636613E-13
4.9636613E-13
4.9636613E-13
4.9636613E-13
4.9636613E-13
4.9636613E-13
4.9636613E-13
4.9636613E-13
4.9636613E-13
4.9636613E-13
4.9636613E-13
4.9636613E-13
4.9636613E-13
4.9636613E-13
4.9636613E-13
4.9636613E-13
4.9636613E-13
4.9636613E-13
4.9636613E-13
4.9636613E-13
4.9636613E-13
4.9636613E-13
4.9636613E-13
4.9636613E-13
4.9636613E-13
4.9636613E-13
4.9636613E-13
4.9636613E-13
4.9636613E-13
4.9636613E-13
4.9636613E-13
4.9636613E-13
4.9636613E-13
4.9636613E-13
4.9636613E-13
4.9636613E-13
4.9636613E-13
4.9636613E-13
4.9636613E-13
4.9636613E-13
4.9636613E-13
4.9636613E-13
4.9636613E-13
4.9636613E-13
4.9636613E-13
4.9636613E-13
4.9636613E-13
4.9636613E-13
4.9636613E-13
4.9636613E-13
4.9636613E-13
4.9636613E-13
4.9636613E-13
4.9636613E-13
4.9636613E-13
4.9636613E-13
4.9636613E-13
4.9636613E-13
4.9636613E-13
4.9636613E-13
4.9636613E-13
4.9636613E-13
4.9636613E-13
4.9636613E-13
4.9636613E-13
4.9636613E-13
4.9636613E-13
4.9636613E-13
4.9636613E-13
4.9636613E-13
4.9636613E-13
4.9636613E-13
4.9636613E-13
4.9636613E-13
4.9636613E-13
4.9636613E-13
4.9636613E-13
4.9636613E-13
4.9636613E-13
4.9636613E-13
4.9636613E-13
4.9636613E-13
4.9636613E-13
4.9636613E-13
4.9636613E-13
4.9636613E-13
4.9636613E-13
4.9636613E-13
4.9636613E-13
4.9636613E-13
4.9636613E-13
4.9636613E-13
4.9636613E-13
4.9636613E-13
4.9636613E-13
4.9636613E-13
4.9636613E-13
4.9636613E-13
4.9636613E-13
4.9636613E-13
4.9636613E-13
4.9636613E-13
4.9636613E-13
4.9636613E-13
4.9636613E-13
4.9636613E-13
4.9636613E-13
4.9636613E-13
4.9636613E-13
4.9636613E-13
4.9636613E-13
4.9636613E-13
4.9636613E-13
4.9636613E-13
4.9636613E-13
4.9636613E-13
4.9636613E-13
4.9636613E-13
4.9636613E-13
4.9636613E-13
4.9636613E-13
4.9636613E-13
4.9636613E-13
4.9636613E-13
4.9636613E-13
4.9636613E-13
4.9636613E-13
4.9636613E-13
4.9636613E-13
4.9636613E-13
4.9636613E-13
4.9636613E-13
4.9636613E-13
4.9636613E-13
4.9636613E-13
4.9636613E-13
4.9636613E-13
4.9636613E-13
4.9636613E-13
4.9636613E-13
4.9636613E-13
4.9636613E-13
4.9636613E-13
4.9636613E-13
4.9636613E-13
4.9636613E-13
4.9636613E-13
4.9636613E-13
4.9636613E-13
4.9636613E-13
4.9636613E-13
4.9636613E-13
4.9636613E-13
4.9636613E-13
4.9636613E-13
4.9636613E-13
4.9636613E-13
4.9636613E-13
4.9636613E-13
4.9636613E-13
4.9636613E-13
4.9636613E-13
4.9636613E-13
4.9636613E-13
4.9636613E-13
4.9636613E-13
4.9636613E-13
4.9636613E-13
4.9636613E-13
4.9636613E-13
4.9636613E-13
4.9636613E-13
4.9636613E-13
4.9636613E-13
4.9636613E-13
4.9636613E-13
4.9636613E-13
4.9636613E-13
4.9636613E-13
4.9636613E-13
4.9636613E-13
4.9636613E-13
4.9636613E-13
4.9636613E-13
4.9636613E-13
4.9636613E-13
4.9636613E-13
4.9636613E-13
4.9636613E-13
4.9636613E-13
4.9636613E-13
4.9636613E-13
4.9636613E-13
4.9636613E-13
4.9636613E-13
4.9636613E-13
4.9636613E-13
4.9636613E-13
4.9636613E-13
4.9636613E-13
4.9636613E-13
4.9636613E-13
4.9636613E-13
4.9636613E-13
4.9636613E-13
4.9636613E-13
4.9636613E-13
4.9636613E-13
4.9636613E-13
4.9636613E-13
4.9636613E-13
4.9636613E-13
4.9636613E-13
4.9636613E-13
4.9636613E-13
4.9636613E-13
4.9636613E-13
4.9636613E-13
4.9636613E-13
4.9636613E-13
4.9636613E-13
4.9636613E-13
4.9636613E-13
4.9636613E-13
4.9636613E-13
4.9636613E-13
4.9636613E-13
4.9636613E-13
4.9636613E-13
4.9636613E-13
4.9636613E-13
4.9636613E-13
4.9636613E-13
4.9636613E-13
4.9636613E-13
4.9636613E-13
4.9636613E-13
4.9636613E-13
4.9636613E-13
4.9636613E-13
4.9636613E-13
4.9636613E-13
4.9636613E-13
4.9636613E-13
4.9636613E-13
4.9636613E-13
4.9636613E-13
4.9636613E-13
4.9636613E-13
4.9636613E-13
4.9636613E-13
4.9636613E-13
4.9636613E-13
4.9636613E-13
4.9636613E-13
4.9636613E-13
4.9636613E-13
4.9636613E-13
4.9636613E-13
4.9636613E-13
4.9636613E-13
4.9636613E-13
4.9636613E-13
4.9636613E-13
4.9636613E-13
4.9636613E-13
4.9636613E-13
4.9636613E-13
4.9636613E-13
4.9636613E-13
4.9636613E-13
4.9636613E-13
4.9636613E-13
4.9636613E-13
4.9636613E-13
4.9636613E-13
4.9636613E-13
4.9636613E-13
4.9636613E-13
4.9636613E-13
4.9636613E-13
4.9636613E-13
4.9636613E-13
4.9636613E-13
4.9636613E-13
4.9636613E-13
4.9636613E-13
4.9636613E-13
4.9636613E-13
4.9636613E-13
4.9636613E-13
4.9636613E-13
4.9636613E-13
4.9636613E-13
4.9636613E-13
4.9636613E-13
4.9636613E-13
4.9636613E-13
4.9636613E-13
4.9636613E-13
4.9636613E-13
4.9636613E-13
4.9636613E-13
4.9636613E-13
4.9636613E-13
4.9636613E-13
4.9636613E-13
4.9636613E-13
4.9636613E-13
4.9636613E-13
4.9636613E-13
4.9636613E-13
4.9636613E-13
4.9636613E-13
4.9636613E-13
4.9636613E-13
4.9636613E-13
4.9636613E-13
4.9636613E-13
4.9636613E-13
4.9636613E-13
4.9636613E-13
4.9636613E-13
4.9636613E-13
4.9636613E-13
4.9636613E-13
4.9636613E-13
4.9636613E-13
4.9636613E-13
4.9636613E-13
4.9636613E-13
4.9636613E-13
4.9636613E-13
4.9636613E-13
4.9636613E-13
4.9636613E-13
4.9636613E-13
4.9636613E-13
4.9636613E-13
4.9636613E-13
4.9636613E-13
4.9636613E-13
4.9636613E-13
4.9636613E-13
4.9636613E-13
4.9636613E-13
4.9636613E-13
4.9636613E-13
4.9636613E-13
4.9636613E-13
4.9636613E-13
4.9636613E-13
4.9636613E-13
4.9636613E-13
4.9636613E-13
4.9636613E-13
4.9636613E-13
4.9636613E-13
4.9636613E-13
4.9636613E-13
4.9636613E-13
4.9636613E-13
4.9636613E-13
4.9636613E-13
4.9636613E-13
4.9636613E-13
4.9636613E-13
4.9636613E-13
4.9636613E-13
4.9636613E-13
4.9636613E-13
4.9636613E-13
4.9636613E-13
4.9636613E-13
4.9636613E-13
4.9636613E-13
4.9636613E-13
4.9636613E-13
4.9636613E-13
4.9636613E-13
4.9636613E-13
4.9636613E-13
4.9636613E-13
4.9636613E-13
4.9636613E-13
4.9636613E-13
4.9636613E-13
4.9636613E-13
4.9636613E-13
4.9636613E-13
4.9636613E-13
4.9636613E-13
4.9636613E-13
4.9636613E-13
4.9636613E-13
4.9636613E-13
4.9636613E-13
4.9636613E-13
4.9636613E-13
4.9636613E-13
4.9636613E-13
4.9636613E-13
4.9636613E-13
4.9636613E-13
4.9636613E-13
4.9636613E-13
4.9636613E-13
4.9636613E-13
4.9636613E-13
4.9636613E-13
4.9636613E-13
4.9636613E-13
4.9636613E-13
4.9636613E-13
4.9636613E-13
4.9636613E-13
4.9636613E-13
4.9636613E-13
4.9636613E-13
4.9636613E-13
4.9636613E-13
4.9636613E-13
4.9636613E-13
4.9636613E-13
4.9636613E-13
4.9636613E-13
4.9636613E-13
4.9636613E-13
4.9636613E-13
4.9636613E-13
4.9636613E-13
4.9636613E-13
4.9636613E-13
4.9636613E-13
4.9636613E-13
4.9636613E-13
4.9636613E-13
0.0
0.0
0.0
0.0
0.0
0.0
0.0
0.0
0.0
0.0
0.0
0.0
0.0
0.0
0.0
0.0
0.0
0.0
0.0
0.0
0.0
0.0
0.0
0.0
0.0
0.0
0.0
0.0
0.0
0.0
0.0
0.0
0.0
0.0
0.0
0.0
0.0
0.0
0.0
0.0
0.0
0.0
0.0
0.0
0.0
0.0
0.0
0.0
0.0
0.0
0.0
0.0
0.0
0.0
0.0
0.0
0.0
0.0
0.0
0.0
0.0
0.0
0.0
0.0
0.0
0.0
0.0
0.0
0.0
0.0
0.0
0.0
0.0
0.0
0.0
0.0
0.0
0.0
0.0
0.0
0.0
0.0
0.0
0.0
0.0
0.0
0.0
0.0
0.0
0.0
0.0
0.0
0.0
0.0
0.0
0.0
0.0
0.0
0.0
0.0
0.0
0.0
0.0
0.0
0.0
0.0
0.0
0.0
0.0
0.0
0.0
0.0
0.0
0.0
0.0
0.0
0.0
0.0
0.0
0.0
0.0
0.0
0.0
0.0
0.0
0.0
0.0
0.0
0.0
0.0
0.0
0.0
0.0
0.0
0.0
0.0
0.0
0.0
0.0
0.0
0.0
0.0
0.0
0.0
0.0
0.0
0.0
0.0
0.0
0.0
0.0
0.0
0.0
0.0
0.0
0.0
0.0
0.0
0.0
0.0
0.0
0.0
0.0
0.0
0.0
0.0
0.0
0.0
0.0
0.0
0.0
0.0
0.0
0.0
0.0
0.0
0.0
0.0
0.0
0.0
0.0
0.0
0.0
0.0
0.0
0.0
0.0
0.0
0.0
0.0
0.0
0.0
0.0
0.0
0.0
0.0
0.0
0.0
0.0
0.0
0.0
0.0
0.0
0.0
0.0
0.0
0.0
0.0
0.0
0.0
0.0
0.0
0.0
0.0
0.0
0.0
0.0
0.0
0.0
0.0
0.0
0.0
0.0
0.0
0.0
0.0
0.0
0.0
0.0
0.0
0.0
0.0
0.0
0.0
0.0
0.0
0.0
0.0
0.0
0.0
0.0
0.0
0.0
0.0
0.0
0.0
0.0
0.0
0.0
0.0
0.0
0.0
0.0
0.0
0.0
0.0
0.0
0.0
0.0
0.0
0.0
0.0
0.0
0.0
0.0
0.0
0.0
0.0
0.0
0.0
0.0
0.0
0.0
0.0
0.0
0.0
0.0
0.0
0.0
0.0
0.0
0.0
0.0
0.0
0.0
0.0
0.0
0.0
0.0
0.0
0.0
0.0
0.0
0.0
0.0
0.0
0.0
0.0
0.0
0.0
0.0
0.0
0.0
0.0
0.0
0.0
0.0
0.0
0.0
0.0
0.0
0.0
0.0
0.0
0.0
0.0
0.0
0.0
0.0
0.0
0.0
0.0
0.0
0.0
0.0
0.0
0.0
0.0
0.0
0.0
0.0
0.0
0.0
0.0
0.0
0.0
0.0
0.0
0.0
0.0
0.0
0.0
0.0
0.0
0.0
0.0
0.0
0.0
0.0
0.0
0.0
0.0
0.0
0.0
0.0
0.0
0.0
0.0
0.0
0.0
0.0
0.0
0.0
0.0
0.0
0.0
0.0
0.0
0.0
0.0
0.0
0.0
0.0
0.0
0.0
0.0
0.0
0.0
0.0
0.0
0.0
0.0
0.0
0.0
0.0
0.0
0.0
0.0
0.0
0.0
0.0
0.0
0.0
0.0
0.0
0.0
0.0
0.0
0.0
0.0
-0.8698486
-0.019819537
0.02761848
-0.019819537
-0.019819537
-0.019819537
-0.019819537
-0.019819537
-0.019819537
-0.019819537
-0.019819537
-0.019819537
-0.019819537
-0.019819537
-0.019819537
-0.019819537
-0.019819537
-0.019819537
-0.019819537
-0.019819537
-0.019819537
-0.019819537
-0.019819537
-0.019819537
-0.019819537
-0.019819537
-0.019819537
4.9636613E-13
4.9636613E-13
4.9636613E-13
4.9636613E-13
4.9636613E-13
4.9636613E-13
4.9636613E-13
4.9636613E-13
4.9636613E-13
4.9636613E-13
4.9636613E-13
4.9636613E-13
4.9636613E-13
4.9636613E-13
4.9636613E-13
4.9636613E-13
4.9636613E-13
4.9636613E-13
4.9636613E-13
4.9636613E-13
4.9636613E-13
4.9636613E-13
4.9636613E-13
4.9636613E-13
4.9636613E-13
4.9636613E-13
4.9636613E-13
4.9636613E-13
4.9636613E-13
4.9636613E-13
4.9636613E-13
4.9636613E-13
4.9636613E-13
4.9636613E-13
4.9636613E-13
4.9636613E-13
4.9636613E-13
4.9636613E-13
4.9636613E-13
4.9636613E-13
4.9636613E-13
4.9636613E-13
4.9636613E-13
4.9636613E-13
4.9636613E-13
4.9636613E-13
4.9636613E-13
4.9636613E-13
4.9636613E-13
4.9636613E-13
4.9636613E-13
4.9636613E-13
4.9636613E-13
4.9636613E-13
4.9636613E-13
4.9636613E-13
4.9636613E-13
4.9636613E-13
4.9636613E-13
4.9636613E-13
4.9636613E-13
4.9636613E-13
4.9636613E-13
4.9636613E-13
4.9636613E-13
4.9636613E-13
4.9636613E-13
4.9636613E-13
4.9636613E-13
4.9636613E-13
4.9636613E-13
4.9636613E-13
4.9636613E-13
4.9636613E-13
4.9636613E-13
4.9636613E-13
4.9636613E-13
4.9636613E-13
4.9636613E-13
4.9636613E-13
4.9636613E-13
4.9636613E-13
4.9636613E-13
4.9636613E-13
4.9636613E-13
4.9636613E-13
4.9636613E-13
4.9636613E-13
4.9636613E-13
4.9636613E-13
4.9636613E-13
4.9636613E-13
4.9636613E-13
4.9636613E-13
4.9636613E-13
4.9636613E-13
4.9636613E-13
4.9636613E-13
4.9636613E-13
4.9636613E-13
4.9636613E-13
4.9636613E-13
4.9636613E-13
4.9636613E-13
4.9636613E-13
4.9636613E-13
4.9636613E-13
4.9636613E-13
4.9636613E-13
4.9636613E-13
4.9636613E-13
4.9636613E-13
4.9636613E-13
4.9636613E-13
4.9636613E-13
4.9636613E-13
4.9636613E-13
4.9636613E-13
4.9636613E-13
4.9636613E-13
4.9636613E-13
4.9636613E-13
4.9636613E-13
4.9636613E-13
4.9636613E-13
4.9636613E-13
4.9636613E-13
4.9636613E-13
4.9636613E-13
4.9636613E-13
4.9636613E-13
4.9636613E-13
4.9636613E-13
4.9636613E-13
4.9636613E-13
4.9636613E-13
4.9636613E-13
4.9636613E-13
4.9636613E-13
4.9636613E-13
4.9636613E-13
4.9636613E-13
4.9636613E-13
4.9636613E-13
4.9636613E-13
4.9636613E-13
4.9636613E-13
4.9636613E-13
4.9636613E-13
4.9636613E-13
4.9636613E-13
4.9636613E-13
4.9636613E-13
4.9636613E-13
4.9636613E-13
4.9636613E-13
4.9636613E-13
4.9636613E-13
4.9636613E-13
4.9636613E-13
4.9636613E-13
4.9636613E-13
4.9636613E-13
4.9636613E-13
4.9636613E-13
4.9636613E-13
4.9636613E-13
4.9636613E-13
4.9636613E-13
4.9636613E-13
4.9636613E-13
4.9636613E-13
4.9636613E-13
4.9636613E-13
4.9636613E-13
4.9636613E-13
4.9636613E-13
4.9636613E-13
4.9636613E-13
4.9636613E-13
4.9636613E-13
4.9636613E-13
4.9636613E-13
4.9636613E-13
4.9636613E-13
4.9636613E-13
4.9636613E-13
4.9636613E-13
4.9636613E-13
4.9636613E-13
4.9636613E-13
4.9636613E-13
4.9636613E-13
4.9636613E-13
4.9636613E-13
4.9636613E-13
4.9636613E-13
4.9636613E-13
4.9636613E-13
4.9636613E-13
4.9636613E-13
4.9636613E-13
4.9636613E-13
4.9636613E-13
4.9636613E-13
4.9636613E-13
4.9636613E-13
4.9636613E-13
4.9636613E-13
4.9636613E-13
4.9636613E-13
4.9636613E-13
4.9636613E-13
4.9636613E-13
4.9636613E-13
4.9636613E-13
4.9636613E-13
4.9636613E-13
4.9636613E-13
4.9636613E-13
4.9636613E-13
4.9636613E-13
4.9636613E-13
4.9636613E-13
4.9636613E-13
4.9636613E-13
4.9636613E-13
4.9636613E-13
4.9636613E-13
4.9636613E-13
4.9636613E-13
4.9636613E-13
4.9636613E-13
4.9636613E-13
4.9636613E-13
4.9636613E-13
4.9636613E-13
4.9636613E-13
4.9636613E-13
4.9636613E-13
4.9636613E-13
4.9636613E-13
4.9636613E-13
4.9636613E-13
4.9636613E-13
4.9636613E-13
4.9636613E-13
4.9636613E-13
4.9636613E-13
4.9636613E-13
4.9636613E-13
4.9636613E-13
4.9636613E-13
4.9636613E-13
4.9636613E-13
4.9636613E-13
4.9636613E-13
4.9636613E-13
4.9636613E-13
4.9636613E-13
4.9636613E-13
4.9636613E-13
4.9636613E-13
4.9636613E-13
4.9636613E-13
4.9636613E-13
4.9636613E-13
4.9636613E-13
4.9636613E-13
4.9636613E-13
4.9636613E-13
4.9636613E-13
4.9636613E-13
4.9636613E-13
4.9636613E-13
4.9636613E-13
4.9636613E-13
4.9636613E-13
4.9636613E-13
4.9636613E-13
4.9636613E-13
4.9636613E-13
4.9636613E-13
4.9636613E-13
4.9636613E-13
4.9636613E-13
4.9636613E-13
4.9636613E-13
4.9636613E-13
4.9636613E-13
4.9636613E-13
4.9636613E-13
4.9636613E-13
4.9636613E-13
4.9636613E-13
4.9636613E-13
4.9636613E-13
4.9636613E-13
4.9636613E-13
4.9636613E-13
4.9636613E-13
4.9636613E-13
4.9636613E-13
4.9636613E-13
4.9636613E-13
4.9636613E-13
4.9636613E-13
4.9636613E-13
4.9636613E-13
4.9636613E-13
4.9636613E-13
4.9636613E-13
4.9636613E-13
4.9636613E-13
4.9636613E-13
4.9636613E-13
4.9636613E-13
4.9636613E-13
4.9636613E-13
4.9636613E-13
4.9636613E-13
4.9636613E-13
4.9636613E-13
4.9636613E-13
4.9636613E-13
4.9636613E-13
4.9636613E-13
4.9636613E-13
4.9636613E-13
4.9636613E-13
4.9636613E-13
4.9636613E-13
4.9636613E-13
4.9636613E-13
4.9636613E-13
4.9636613E-13
4.9636613E-13
4.9636613E-13
4.9636613E-13
4.9636613E-13
4.9636613E-13
4.9636613E-13
4.9636613E-13
4.9636613E-13
4.9636613E-13
4.9636613E-13
4.9636613E-13
4.9636613E-13
4.9636613E-13
4.9636613E-13
4.9636613E-13
4.9636613E-13
4.9636613E-13
4.9636613E-13
4.9636613E-13
4.9636613E-13
4.9636613E-13
4.9636613E-13
4.9636613E-13
4.9636613E-13
4.9636613E-13
4.9636613E-13
4.9636613E-13
4.9636613E-13
4.9636613E-13
4.9636613E-13
4.9636613E-13
4.9636613E-13
4.9636613E-13
4.9636613E-13
4.9636613E-13
4.9636613E-13
4.9636613E-13
4.9636613E-13
4.9636613E-13
4.9636613E-13
4.9636613E-13
4.9636613E-13
4.9636613E-13
4.9636613E-13
4.9636613E-13
4.9636613E-13
4.9636613E-13
4.9636613E-13
4.9636613E-13
4.9636613E-13
4.9636613E-13
4.9636613E-13
4.9636613E-13
4.9636613E-13
4.9636613E-13
4.9636613E-13
4.9636613E-13
4.9636613E-13
4.9636613E-13
4.9636613E-13
4.9636613E-13
4.9636613E-13
4.9636613E-13
4.9636613E-13
4.9636613E-13
4.9636613E-13
4.9636613E-13
4.9636613E-13
4.9636613E-13
4.9636613E-13
4.9636613E-13
4.9636613E-13
4.9636613E-13
4.9636613E-13
4.9636613E-13
4.9636613E-13
4.9636613E-13
4.9636613E-13
4.9636613E-13
4.9636613E-13
4.9636613E-13
4.9636613E-13
4.9636613E-13
4.9636613E-13
4.9636613E-13
4.9636613E-13
4.9636613E-13
4.9636613E-13
4.9636613E-13
4.9636613E-13
4.9636613E-13
4.9636613E-13
4.9636613E-13
4.9636613E-13
4.9636613E-13
4.9636613E-13
4.9636613E-13
4.9636613E-13
4.9636613E-13
4.9636613E-13
4.9636613E-13
4.9636613E-13
4.9636613E-13
4.9636613E-13
4.9636613E-13
4.9636613E-13
4.9636613E-13
4.9636613E-13
4.9636613E-13
4.9636613E-13
4.9636613E-13
4.9636613E-13
4.9636613E-13
4.9636613E-13
4.9636613E-13
4.9636613E-13
4.9636613E-13
4.9636613E-13
4.9636613E-13
4.9636613E-13
4.9636613E-13
4.9636613E-13
4.9636613E-13
4.9636613E-13
4.9636613E-13
4.9636613E-13
4.9636613E-13
4.9636613E-13
4.9636613E-13
4.9636613E-13
4.9636613E-13
4.9636613E-13
4.9636613E-13
4.9636613E-13
4.9636613E-13
4.9636613E-13
4.9636613E-13
4.9636613E-13
0.0
0.0
0.0
0.0
0.0
0.0
0.0
0.0
0.0
0.0
0.0
0.0
0.0
0.0
0.0
0.0
0.0
0.0
0.0
0.0
0.0
0.0
0.0
0.0
0.0
0.0
0.0
0.0
0.0
0.0
0.0
0.0
0.0
0.0
0.0
0.0
0.0
0.0
0.0
0.0
0.0
0.0
0.0
0.0
0.0
0.0
0.0
0.0
0.0
0.0
0.0
0.0
0.0
0.0
0.0
0.0
0.0
0.0
0.0
0.0
0.0
0.0
0.0
0.0
0.0
0.0
0.0
0.0
0.0
0.0
0.0
0.0
0.0
0.0
0.0
0.0
0.0
0.0
0.0
0.0
0.0
0.0
0.0
0.0
0.0
0.0
0.0
0.0
0.0
0.0
0.0
0.0
0.0
0.0
0.0
0.0
0.0
0.0
0.0
0.0
0.0
0.0
0.0
0.0
0.0
0.0
0.0
0.0
0.0
0.0
0.0
0.0
0.0
0.0
0.0
0.0
0.0
0.0
0.0
0.0
0.0
0.0
0.0
0.0
0.0
0.0
0.0
0.0
0.0
0.0
0.0
0.0
0.0
0.0
0.0
0.0
0.0
0.0
0.0
0.0
0.0
0.0
0.0
0.0
0.0
0.0
0.0
0.0
0.0
0.0
0.0
0.0
0.0
0.0
0.0
0.0
0.0
0.0
0.0
0.0
0.0
0.0
0.0
0.0
0.0
0.0
0.0
0.0
0.0
0.0
0.0
0.0
0.0
0.0
0.0
0.0
0.0
0.0
0.0
0.0
0.0
0.0
0.0
0.0
0.0
0.0
0.0
0.0
0.0
0.0
0.0
0.0
0.0
0.0
0.0
0.0
0.0
0.0
0.0
0.0
0.0
0.0
0.0
0.0
0.0
0.0
0.0
0.0
0.0
0.0
0.0
0.0
0.0
0.0
0.0
0.0
0.0
0.0
0.0
0.0
0.0
0.0
0.0
0.0
0.0
0.0
0.0
0.0
0.0
0.0
0.0
0.0
0.0
0.0
0.0
0.0
0.0
0.0
0.0
0.0
0.0
0.0
0.0
0.0
0.0
0.0
0.0
0.0
0.0
0.0
0.0
0.0
0.0
0.0
0.0
0.0
0.0
0.0
0.0
0.0
0.0
0.0
0.0
0.0
0.0
0.0
0.0
0.0
0.0
0.0
0.0
0.0
0.0
0.0
0.0
0.0
0.0
0.0
0.0
0.0
0.0
0.0
0.0
0.0
0.0
0.0
0.0
0.0
0.0
0.0
0.0
0.0
0.0
0.0
0.0
0.0
0.0
0.0
0.0
0.0
0.0
0.0
0.0
0.0
0.0
0.0
0.0
0.0
0.0
0.0
0.0
0.0
0.0
0.0
0.0
0.0
0.0
0.0
0.0
0.0
0.0
0.0
0.0
0.0
0.0
0.0
0.0
0.0
0.0
0.0
0.0
0.0
0.0
0.0
0.0
0.0
0.0
0.0
0.0
0.0
0.0
0.0
0.0
0.0
0.0
0.0
0.0
0.0
0.0
0.0
0.0
0.0
0.0
0.0
0.0
0.0
0.0
0.0
0.0
0.0
0.0
0.0
0.0
0.0
0.0
0.0
0.0
0.0
0.0
0.0
0.0
0.0
0.0
0.0
0.0
0.0
0.0
0.0
0.0
0.0
0.0
0.0
0.0
0.0
0.0
0.0
0.0
0.0
0.0
0.0
0.0
0.0
0.0
0.0
0.0
0.0
0.0
0.0
0.0
0.0
-0.8698486
-0.019819537
0.02761848
-0.019819537
-0.019819537
-0.019819537
-0.019819537
-0.019819537
-0.019819537
-0.019819537
-0.019819537
-0.019819537
-0.019819537
-0.019819537
-0.019819537
-0.019819537
-0.019819537
-0.019819537
-0.019819537
-0.019819537
-0.019819537
-0.019819537
-0.019819537
-0.019819537
-0.019819537
-0.019819537
-0.019819537
4.9636613E-13
4.9636613E-13
4.9636613E-13
4.9636613E-13
4.9636613E-13
4.9636613E-13
4.9636613E-13
4.9636613E-13
4.9636613E-13
4.9636613E-13
4.9636613E-13
4.9636613E-13
4.9636613E-13
4.9636613E-13
4.9636613E-13
4.9636613E-13
4.9636613E-13
4.9636613E-13
4.9636613E-13
4.9636613E-13
4.9636613E-13
4.9636613E-13
4.9636613E-13
4.9636613E-13
4.9636613E-13
4.9636613E-13
4.9636613E-13
4.9636613E-13
4.9636613E-13
4.9636613E-13
4.9636613E-13
4.9636613E-13
4.9636613E-13
4.9636613E-13
4.9636613E-13
4.9636613E-13
4.9636613E-13
4.9636613E-13
4.9636613E-13
4.9636613E-13
4.9636613E-13
4.9636613E-13
4.9636613E-13
4.9636613E-13
4.9636613E-13
4.9636613E-13
4.9636613E-13
4.9636613E-13
4.9636613E-13
4.9636613E-13
4.9636613E-13
4.9636613E-13
4.9636613E-13
4.9636613E-13
4.9636613E-13
4.9636613E-13
4.9636613E-13
4.9636613E-13
4.9636613E-13
4.9636613E-13
4.9636613E-13
4.9636613E-13
4.9636613E-13
4.9636613E-13
4.9636613E-13
4.9636613E-13
4.9636613E-13
4.9636613E-13
4.9636613E-13
4.9636613E-13
4.9636613E-13
4.9636613E-13
4.9636613E-13
4.9636613E-13
4.9636613E-13
4.9636613E-13
4.9636613E-13
4.9636613E-13
4.9636613E-13
4.9636613E-13
4.9636613E-13
4.9636613E-13
4.9636613E-13
4.9636613E-13
4.9636613E-13
4.9636613E-13
4.9636613E-13
4.9636613E-13
4.9636613E-13
4.9636613E-13
4.9636613E-13
4.9636613E-13
4.9636613E-13
4.9636613E-13
4.9636613E-13
4.9636613E-13
4.9636613E-13
4.9636613E-13
4.9636613E-13
4.9636613E-13
4.9636613E-13
4.9636613E-13
4.9636613E-13
4.9636613E-13
4.9636613E-13
4.9636613E-13
4.9636613E-13
4.9636613E-13
4.9636613E-13
4.9636613E-13
4.9636613E-13
4.9636613E-13
4.9636613E-13
4.9636613E-13
4.9636613E-13
4.9636613E-13
4.9636613E-13
4.9636613E-13
4.9636613E-13
4.9636613E-13
4.9636613E-13
4.9636613E-13
4.9636613E-13
4.9636613E-13
4.9636613E-13
4.9636613E-13
4.9636613E-13
4.9636613E-13
4.9636613E-13
4.9636613E-13
4.9636613E-13
4.9636613E-13
4.9636613E-13
4.9636613E-13
4.9636613E-13
4.9636613E-13
4.9636613E-13
4.9636613E-13
4.9636613E-13
4.9636613E-13
4.9636613E-13
4.9636613E-13
4.9636613E-13
4.9636613E-13
4.9636613E-13
4.9636613E-13
4.9636613E-13
4.9636613E-13
4.9636613E-13
4.9636613E-13
4.9636613E-13
4.9636613E-13
4.9636613E-13
4.9636613E-13
4.9636613E-13
4.9636613E-13
4.9636613E-13
4.9636613E-13
4.9636613E-13
4.9636613E-13
4.9636613E-13
4.9636613E-13
4.9636613E-13
4.9636613E-13
4.9636613E-13
4.9636613E-13
4.9636613E-13
4.9636613E-13
4.9636613E-13
4.9636613E-13
4.9636613E-13
4.9636613E-13
4.9636613E-13
4.9636613E-13
4.9636613E-13
4.9636613E-13
4.9636613E-13
4.9636613E-13
4.9636613E-13
4.9636613E-13
4.9636613E-13
4.9636613E-13
4.9636613E-13
4.9636613E-13
4.9636613E-13
4.9636613E-13
4.9636613E-13
4.9636613E-13
4.9636613E-13
4.9636613E-13
4.9636613E-13
4.9636613E-13
4.9636613E-13
4.9636613E-13
4.9636613E-13
4.9636613E-13
4.9636613E-13
4.9636613E-13
4.9636613E-13
4.9636613E-13
4.9636613E-13
4.9636613E-13
4.9636613E-13
4.9636613E-13
4.9636613E-13
4.9636613E-13
4.9636613E-13
4.9636613E-13
4.9636613E-13
4.9636613E-13
4.9636613E-13
4.9636613E-13
4.9636613E-13
4.9636613E-13
4.9636613E-13
4.9636613E-13
4.9636613E-13
4.9636613E-13
4.9636613E-13
4.9636613E-13
4.9636613E-13
4.9636613E-13
4.9636613E-13
4.9636613E-13
4.9636613E-13
4.9636613E-13
4.9636613E-13
4.9636613E-13
4.9636613E-13
4.9636613E-13
4.9636613E-13
4.9636613E-13
4.9636613E-13
4.9636613E-13
4.9636613E-13
4.9636613E-13
4.9636613E-13
4.9636613E-13
4.9636613E-13
4.9636613E-13
4.9636613E-13
4.9636613E-13
4.9636613E-13
4.9636613E-13
4.9636613E-13
4.9636613E-13
4.9636613E-13
4.9636613E-13
4.9636613E-13
4.9636613E-13
4.9636613E-13
4.9636613E-13
4.9636613E-13
4.9636613E-13
4.9636613E-13
4.9636613E-13
4.9636613E-13
4.9636613E-13
4.9636613E-13
4.9636613E-13
4.9636613E-13
4.9636613E-13
4.9636613E-13
4.9636613E-13
4.9636613E-13
4.9636613E-13
4.9636613E-13
4.9636613E-13
4.9636613E-13
4.9636613E-13
4.9636613E-13
4.9636613E-13
4.9636613E-13
4.9636613E-13
4.9636613E-13
4.9636613E-13
4.9636613E-13
4.9636613E-13
4.9636613E-13
4.9636613E-13
4.9636613E-13
4.9636613E-13
4.9636613E-13
4.9636613E-13
4.9636613E-13
4.9636613E-13
4.9636613E-13
4.9636613E-13
4.9636613E-13
4.9636613E-13
4.9636613E-13
4.9636613E-13
4.9636613E-13
4.9636613E-13
4.9636613E-13
4.9636613E-13
4.9636613E-13
4.9636613E-13
4.9636613E-13
4.9636613E-13
4.9636613E-13
4.9636613E-13
4.9636613E-13
4.9636613E-13
4.9636613E-13
4.9636613E-13
4.9636613E-13
4.9636613E-13
4.9636613E-13
4.9636613E-13
4.9636613E-13
4.9636613E-13
4.9636613E-13
4.9636613E-13
4.9636613E-13
4.9636613E-13
4.9636613E-13
4.9636613E-13
4.9636613E-13
4.9636613E-13
4.9636613E-13
4.9636613E-13
4.9636613E-13
4.9636613E-13
4.9636613E-13
4.9636613E-13
4.9636613E-13
4.9636613E-13
4.9636613E-13
4.9636613E-13
4.9636613E-13
4.9636613E-13
4.9636613E-13
4.9636613E-13
4.9636613E-13
4.9636613E-13
4.9636613E-13
4.9636613E-13
4.9636613E-13
4.9636613E-13
4.9636613E-13
4.9636613E-13
4.9636613E-13
4.9636613E-13
4.9636613E-13
4.9636613E-13
4.9636613E-13
4.9636613E-13
4.9636613E-13
4.9636613E-13
4.9636613E-13
4.9636613E-13
4.9636613E-13
4.9636613E-13
4.9636613E-13
4.9636613E-13
4.9636613E-13
4.9636613E-13
4.9636613E-13
4.9636613E-13
4.9636613E-13
4.9636613E-13
4.9636613E-13
4.9636613E-13
4.9636613E-13
4.9636613E-13
4.9636613E-13
4.9636613E-13
4.9636613E-13
4.9636613E-13
4.9636613E-13
4.9636613E-13
4.9636613E-13
4.9636613E-13
4.9636613E-13
4.9636613E-13
4.9636613E-13
4.9636613E-13
4.9636613E-13
4.9636613E-13
4.9636613E-13
4.9636613E-13
4.9636613E-13
4.9636613E-13
4.9636613E-13
4.9636613E-13
4.9636613E-13
4.9636613E-13
4.9636613E-13
4.9636613E-13
4.9636613E-13
4.9636613E-13
4.9636613E-13
4.9636613E-13
4.9636613E-13
4.9636613E-13
4.9636613E-13
4.9636613E-13
4.9636613E-13
4.9636613E-13
4.9636613E-13
4.9636613E-13
4.9636613E-13
4.9636613E-13
4.9636613E-13
4.9636613E-13
4.9636613E-13
4.9636613E-13
4.9636613E-13
4.9636613E-13
4.9636613E-13
4.9636613E-13
4.9636613E-13
4.9636613E-13
4.9636613E-13
4.9636613E-13
4.9636613E-13
4.9636613E-13
4.9636613E-13
4.9636613E-13
4.9636613E-13
4.9636613E-13
4.9636613E-13
4.9636613E-13
4.9636613E-13
4.9636613E-13
4.9636613E-13
4.9636613E-13
4.9636613E-13
4.9636613E-13
4.9636613E-13
4.9636613E-13
4.9636613E-13
4.9636613E-13
4.9636613E-13
4.9636613E-13
4.9636613E-13
4.9636613E-13
4.9636613E-13
4.9636613E-13
4.9636613E-13
4.9636613E-13
4.9636613E-13
4.9636613E-13
4.9636613E-13
4.9636613E-13
4.9636613E-13
4.9636613E-13
4.9636613E-13
4.9636613E-13
4.9636613E-13
4.9636613E-13
4.9636613E-13
4.9636613E-13
4.9636613E-13
4.9636613E-13
4.9636613E-13
4.9636613E-13
4.9636613E-13
4.9636613E-13
4.9636613E-13
4.9636613E-13
4.9636613E-13
4.9636613E-13
4.9636613E-13
4.9636613E-13
4.9636613E-13
4.9636613E-13
4.9636613E-13
4.9636613E-13
4.9636613E-13
4.9636613E-13
4.9636613E-13
4.9636613E-13
0.0
0.0
0.0
0.0
0.0
0.0
0.0
0.0
0.0
0.0
0.0
0.0
0.0
0.0
0.0
0.0
0.0
0.0
0.0
0.0
0.0
0.0
0.0
0.0
0.0
0.0
0.0
0.0
0.0
0.0
0.0
0.0
0.0
0.0
0.0
0.0
0.0
0.0
0.0
0.0
0.0
0.0
0.0
0.0
0.0
0.0
0.0
0.0
0.0
0.0
0.0
0.0
0.0
0.0
0.0
0.0
0.0
0.0
0.0
0.0
0.0
0.0
0.0
0.0
0.0
0.0
0.0
0.0
0.0
0.0
0.0
0.0
0.0
0.0
0.0
0.0
0.0
0.0
0.0
0.0
0.0
0.0
0.0
0.0
0.0
0.0
0.0
0.0
0.0
0.0
0.0
0.0
0.0
0.0
0.0
0.0
0.0
0.0
0.0
0.0
0.0
0.0
0.0
0.0
0.0
0.0
0.0
0.0
0.0
0.0
0.0
0.0
0.0
0.0
0.0
0.0
0.0
0.0
0.0
0.0
0.0
0.0
0.0
0.0
0.0
0.0
0.0
0.0
0.0
0.0
0.0
0.0
0.0
0.0
0.0
0.0
0.0
0.0
0.0
0.0
0.0
0.0
0.0
0.0
0.0
0.0
0.0
0.0
0.0
0.0
0.0
0.0
0.0
0.0
0.0
0.0
0.0
0.0
0.0
0.0
0.0
0.0
0.0
0.0
0.0
0.0
0.0
0.0
0.0
0.0
0.0
0.0
0.0
0.0
0.0
0.0
0.0
0.0
0.0
0.0
0.0
0.0
0.0
0.0
0.0
0.0
0.0
0.0
0.0
0.0
0.0
0.0
0.0
0.0
0.0
0.0
0.0
0.0
0.0
0.0
0.0
0.0
0.0
0.0
0.0
0.0
0.0
0.0
0.0
0.0
0.0
0.0
0.0
0.0
0.0
0.0
0.0
0.0
0.0
0.0
0.0
0.0
0.0
0.0
0.0
0.0
0.0
0.0
0.0
0.0
0.0
0.0
0.0
0.0
0.0
0.0
0.0
0.0
0.0
0.0
0.0
0.0
0.0
0.0
0.0
0.0
0.0
0.0
0.0
0.0
0.0
0.0
0.0
0.0
0.0
0.0
0.0
0.0
0.0
0.0
0.0
0.0
0.0
0.0
0.0
0.0
0.0
0.0
0.0
0.0
0.0
0.0
0.0
0.0
0.0
0.0
0.0
0.0
0.0
0.0
0.0
0.0
0.0
0.0
0.0
0.0
0.0
0.0
0.0
0.0
0.0
0.0
0.0
0.0
0.0
0.0
0.0
0.0
0.0
0.0
0.0
0.0
0.0
0.0
0.0
0.0
0.0
0.0
0.0
0.0
0.0
0.0
0.0
0.0
0.0
0.0
0.0
0.0
0.0
0.0
0.0
0.0
0.0
0.0
0.0
0.0
0.0
0.0
0.0
0.0
0.0
0.0
0.0
0.0
0.0
0.0
0.0
0.0
0.0
0.0
0.0
0.0
0.0
0.0
0.0
0.0
0.0
0.0
0.0
0.0
0.0
0.0
0.0
0.0
0.0
0.0
0.0
0.0
0.0
0.0
0.0
0.0
0.0
0.0
0.0
0.0
0.0
0.0
0.0
0.0
0.0
0.0
0.0
0.0
0.0
0.0
0.0
0.0
0.0
0.0
0.0
0.0
0.0
0.0
0.0
0.0
0.0
0.0
0.0
0.0
0.0
0.0
0.0
0.0
0.0
0.0
0.0
0.0
0.0
0.0
-0.8698486
-0.019819537
0.02761848
-0.019819537
-0.019819537
-0.019819537
-0.019819537
-0.019819537
-0.019819537
-0.019819537
-0.019819537
-0.019819537
-0.019819537
-0.019819537
-0.019819537
-0.019819537
-0.019819537
-0.019819537
-0.019819537
-0.019819537
-0.019819537
-0.019819537
-0.019819537
-0.019819537
-0.019819537
-0.019819537
-0.019819537
4.9636613E-13
4.9636613E-13
4.9636613E-13
4.9636613E-13
4.9636613E-13
4.9636613E-13
4.9636613E-13
4.9636613E-13
4.9636613E-13
4.9636613E-13
4.9636613E-13
4.9636613E-13
4.9636613E-13
4.9636613E-13
4.9636613E-13
4.9636613E-13
4.9636613E-13
4.9636613E-13
4.9636613E-13
4.9636613E-13
4.9636613E-13
4.9636613E-13
4.9636613E-13
4.9636613E-13
4.9636613E-13
4.9636613E-13
4.9636613E-13
4.9636613E-13
4.9636613E-13
4.9636613E-13
4.9636613E-13
4.9636613E-13
4.9636613E-13
4.9636613E-13
4.9636613E-13
4.9636613E-13
4.9636613E-13
4.9636613E-13
4.9636613E-13
4.9636613E-13
4.9636613E-13
4.9636613E-13
4.9636613E-13
4.9636613E-13
4.9636613E-13
4.9636613E-13
4.9636613E-13
4.9636613E-13
4.9636613E-13
4.9636613E-13
4.9636613E-13
4.9636613E-13
4.9636613E-13
4.9636613E-13
4.9636613E-13
4.9636613E-13
4.9636613E-13
4.9636613E-13
4.9636613E-13
4.9636613E-13
4.9636613E-13
4.9636613E-13
4.9636613E-13
4.9636613E-13
4.9636613E-13
4.9636613E-13
4.9636613E-13
4.9636613E-13
4.9636613E-13
4.9636613E-13
4.9636613E-13
4.9636613E-13
4.9636613E-13
4.9636613E-13
4.9636613E-13
4.9636613E-13
4.9636613E-13
4.9636613E-13
4.9636613E-13
4.9636613E-13
4.9636613E-13
4.9636613E-13
4.9636613E-13
4.9636613E-13
4.9636613E-13
4.9636613E-13
4.9636613E-13
4.9636613E-13
4.9636613E-13
4.9636613E-13
4.9636613E-13
4.9636613E-13
4.9636613E-13
4.9636613E-13
4.9636613E-13
4.9636613E-13
4.9636613E-13
4.9636613E-13
4.9636613E-13
4.9636613E-13
4.9636613E-13
4.9636613E-13
4.9636613E-13
4.9636613E-13
4.9636613E-13
4.9636613E-13
4.9636613E-13
4.9636613E-13
4.9636613E-13
4.9636613E-13
4.9636613E-13
4.9636613E-13
4.9636613E-13
4.9636613E-13
4.9636613E-13
4.9636613E-13
4.9636613E-13
4.9636613E-13
4.9636613E-13
4.9636613E-13
4.9636613E-13
4.9636613E-13
4.9636613E-13
4.9636613E-13
4.9636613E-13
4.9636613E-13
4.9636613E-13
4.9636613E-13
4.9636613E-13
4.9636613E-13
4.9636613E-13
4.9636613E-13
4.9636613E-13
4.9636613E-13
4.9636613E-13
4.9636613E-13
4.9636613E-13
4.9636613E-13
4.9636613E-13
4.9636613E-13
4.9636613E-13
4.9636613E-13
4.9636613E-13
4.9636613E-13
4.9636613E-13
4.9636613E-13
4.9636613E-13
4.9636613E-13
4.9636613E-13
4.9636613E-13
4.9636613E-13
4.9636613E-13
4.9636613E-13
4.9636613E-13
4.9636613E-13
4.9636613E-13
4.9636613E-13
4.9636613E-13
4.9636613E-13
4.9636613E-13
4.9636613E-13
4.9636613E-13
4.9636613E-13
4.9636613E-13
4.9636613E-13
4.9636613E-13
4.9636613E-13
4.9636613E-13
4.9636613E-13
4.9636613E-13
4.9636613E-13
4.9636613E-13
4.9636613E-13
4.9636613E-13
4.9636613E-13
4.9636613E-13
4.9636613E-13
4.9636613E-13
4.9636613E-13
4.9636613E-13
4.9636613E-13
4.9636613E-13
4.9636613E-13
4.9636613E-13
4.9636613E-13
4.9636613E-13
4.9636613E-13
4.9636613E-13
4.9636613E-13
4.9636613E-13
4.9636613E-13
4.9636613E-13
4.9636613E-13
4.9636613E-13
4.9636613E-13
4.9636613E-13
4.9636613E-13
4.9636613E-13
4.9636613E-13
4.9636613E-13
4.9636613E-13
4.9636613E-13
4.9636613E-13
4.9636613E-13
4.9636613E-13
4.9636613E-13
4.9636613E-13
4.9636613E-13
4.9636613E-13
4.9636613E-13
4.9636613E-13
4.9636613E-13
4.9636613E-13
4.9636613E-13
4.9636613E-13
4.9636613E-13
4.9636613E-13
4.9636613E-13
4.9636613E-13
4.9636613E-13
4.9636613E-13
4.9636613E-13
4.9636613E-13
4.9636613E-13
4.9636613E-13
4.9636613E-13
4.9636613E-13
4.9636613E-13
4.9636613E-13
4.9636613E-13
4.9636613E-13
4.9636613E-13
4.9636613E-13
4.9636613E-13
4.9636613E-13
4.9636613E-13
4.9636613E-13
4.9636613E-13
4.9636613E-13
4.9636613E-13
4.9636613E-13
4.9636613E-13
4.9636613E-13
4.9636613E-13
4.9636613E-13
4.9636613E-13
4.9636613E-13
4.9636613E-13
4.9636613E-13
4.9636613E-13
4.9636613E-13
4.9636613E-13
4.9636613E-13
4.9636613E-13
4.9636613E-13
4.9636613E-13
4.9636613E-13
4.9636613E-13
4.9636613E-13
4.9636613E-13
4.9636613E-13
4.9636613E-13
4.9636613E-13
4.9636613E-13
4.9636613E-13
4.9636613E-13
4.9636613E-13
4.9636613E-13
4.9636613E-13
4.9636613E-13
4.9636613E-13
4.9636613E-13
4.9636613E-13
4.9636613E-13
4.9636613E-13
4.9636613E-13
4.9636613E-13
4.9636613E-13
4.9636613E-13
4.9636613E-13
4.9636613E-13
4.9636613E-13
4.9636613E-13
4.9636613E-13
4.9636613E-13
4.9636613E-13
4.9636613E-13
4.9636613E-13
4.9636613E-13
4.9636613E-13
4.9636613E-13
4.9636613E-13
4.9636613E-13
4.9636613E-13
4.9636613E-13
4.9636613E-13
4.9636613E-13
4.9636613E-13
4.9636613E-13
4.9636613E-13
4.9636613E-13
4.9636613E-13
4.9636613E-13
4.9636613E-13
4.9636613E-13
4.9636613E-13
4.9636613E-13
4.9636613E-13
4.9636613E-13
4.9636613E-13
4.9636613E-13
4.9636613E-13
4.9636613E-13
4.9636613E-13
4.9636613E-13
4.9636613E-13
4.9636613E-13
4.9636613E-13
4.9636613E-13
4.9636613E-13
4.9636613E-13
4.9636613E-13
4.9636613E-13
4.9636613E-13
4.9636613E-13
4.9636613E-13
4.9636613E-13
4.9636613E-13
4.9636613E-13
4.9636613E-13
4.9636613E-13
4.9636613E-13
4.9636613E-13
4.9636613E-13
4.9636613E-13
4.9636613E-13
4.9636613E-13
4.9636613E-13
4.9636613E-13
4.9636613E-13
4.9636613E-13
4.9636613E-13
4.9636613E-13
4.9636613E-13
4.9636613E-13
4.9636613E-13
4.9636613E-13
4.9636613E-13
4.9636613E-13
4.9636613E-13
4.9636613E-13
4.9636613E-13
4.9636613E-13
4.9636613E-13
4.9636613E-13
4.9636613E-13
4.9636613E-13
4.9636613E-13
4.9636613E-13
4.9636613E-13
4.9636613E-13
4.9636613E-13
4.9636613E-13
4.9636613E-13
4.9636613E-13
4.9636613E-13
4.9636613E-13
4.9636613E-13
4.9636613E-13
4.9636613E-13
4.9636613E-13
4.9636613E-13
4.9636613E-13
4.9636613E-13
4.9636613E-13
4.9636613E-13
4.9636613E-13
4.9636613E-13
4.9636613E-13
4.9636613E-13
4.9636613E-13
4.9636613E-13
4.9636613E-13
4.9636613E-13
4.9636613E-13
4.9636613E-13
4.9636613E-13
4.9636613E-13
4.9636613E-13
4.9636613E-13
4.9636613E-13
4.9636613E-13
4.9636613E-13
4.9636613E-13
4.9636613E-13
4.9636613E-13
4.9636613E-13
4.9636613E-13
4.9636613E-13
4.9636613E-13
4.9636613E-13
4.9636613E-13
4.9636613E-13
4.9636613E-13
4.9636613E-13
4.9636613E-13
4.9636613E-13
4.9636613E-13
4.9636613E-13
4.9636613E-13
4.9636613E-13
4.9636613E-13
4.9636613E-13
4.9636613E-13
4.9636613E-13
4.9636613E-13
4.9636613E-13
4.9636613E-13
4.9636613E-13
4.9636613E-13
4.9636613E-13
4.9636613E-13
4.9636613E-13
4.9636613E-13
4.9636613E-13
4.9636613E-13
4.9636613E-13
4.9636613E-13
4.9636613E-13
4.9636613E-13
4.9636613E-13
4.9636613E-13
4.9636613E-13
4.9636613E-13
4.9636613E-13
4.9636613E-13
4.9636613E-13
4.9636613E-13
4.9636613E-13
4.9636613E-13
4.9636613E-13
4.9636613E-13
4.9636613E-13
4.9636613E-13
4.9636613E-13
4.9636613E-13
4.9636613E-13
4.9636613E-13
4.9636613E-13
4.9636613E-13
4.9636613E-13
4.9636613E-13
4.9636613E-13
4.9636613E-13
4.9636613E-13
4.9636613E-13
4.9636613E-13
4.9636613E-13
4.9636613E-13
4.9636613E-13
4.9636613E-13
4.9636613E-13
4.9636613E-13
4.9636613E-13
4.9636613E-13
4.9636613E-13
4.9636613E-13
4.9636613E-13
4.9636613E-13
4.9636613E-13
4.9636613E-13
4.9636613E-13
4.9636613E-13
4.9636613E-13
0.0
0.0
0.0
0.0
0.0
0.0
0.0
0.0
0.0
0.0
0.0
0.0
0.0
0.0
0.0
0.0
0.0
0.0
0.0
0.0
0.0
0.0
0.0
0.0
0.0
0.0
0.0
0.0
0.0
0.0
0.0
0.0
0.0
0.0
0.0
0.0
0.0
0.0
0.0
0.0
0.0
0.0
0.0
0.0
0.0
0.0
0.0
0.0
0.0
0.0
0.0
0.0
0.0
0.0
0.0
0.0
0.0
0.0
0.0
0.0
0.0
0.0
0.0
0.0
0.0
0.0
0.0
0.0
0.0
0.0
0.0
0.0
0.0
0.0
0.0
0.0
0.0
0.0
0.0
0.0
0.0
0.0
0.0
0.0
0.0
0.0
0.0
0.0
0.0
0.0
0.0
0.0
0.0
0.0
0.0
0.0
0.0
0.0
0.0
0.0
0.0
0.0
0.0
0.0
0.0
0.0
0.0
0.0
0.0
0.0
0.0
0.0
0.0
0.0
0.0
0.0
0.0
0.0
0.0
0.0
0.0
0.0
0.0
0.0
0.0
0.0
0.0
0.0
0.0
0.0
0.0
0.0
0.0
0.0
0.0
0.0
0.0
0.0
0.0
0.0
0.0
0.0
0.0
0.0
0.0
0.0
0.0
0.0
0.0
0.0
0.0
0.0
0.0
0.0
0.0
0.0
0.0
0.0
0.0
0.0
0.0
0.0
0.0
0.0
0.0
0.0
0.0
0.0
0.0
0.0
0.0
0.0
0.0
0.0
0.0
0.0
0.0
0.0
0.0
0.0
0.0
0.0
0.0
0.0
0.0
0.0
0.0
0.0
0.0
0.0
0.0
0.0
0.0
0.0
0.0
0.0
0.0
0.0
0.0
0.0
0.0
0.0
0.0
0.0
0.0
0.0
0.0
0.0
0.0
0.0
0.0
0.0
0.0
0.0
0.0
0.0
0.0
0.0
0.0
0.0
0.0
0.0
0.0
0.0
0.0
0.0
0.0
0.0
0.0
0.0
0.0
0.0
0.0
0.0
0.0
0.0
0.0
0.0
0.0
0.0
0.0
0.0
0.0
0.0
0.0
0.0
0.0
0.0
0.0
0.0
0.0
0.0
0.0
0.0
0.0
0.0
0.0
0.0
0.0
0.0
0.0
0.0
0.0
0.0
0.0
0.0
0.0
0.0
0.0
0.0
0.0
0.0
0.0
0.0
0.0
0.0
0.0
0.0
0.0
0.0
0.0
0.0
0.0
0.0
0.0
0.0
0.0
0.0
0.0
0.0
0.0
0.0
0.0
0.0
0.0
0.0
0.0
0.0
0.0
0.0
0.0
0.0
0.0
0.0
0.0
0.0
0.0
0.0
0.0
0.0
0.0
0.0
0.0
0.0
0.0
0.0
0.0
0.0
0.0
0.0
0.0
0.0
0.0
0.0
0.0
0.0
0.0
0.0
0.0
0.0
0.0
0.0
0.0
0.0
0.0
0.0
0.0
0.0
0.0
0.0
0.0
0.0
0.0
0.0
0.0
0.0
0.0
0.0
0.0
0.0
0.0
0.0
0.0
0.0
0.0
0.0
0.0
0.0
0.0
0.0
0.0
0.0
0.0
0.0
0.0
0.0
0.0
0.0
0.0
0.0
0.0
0.0
0.0
0.0
0.0
0.0
0.0
0.0
0.0
0.0
0.0
0.0
0.0
0.0
0.0
0.0
0.0
0.0
0.0
0.0
0.0
0.0
0.0
0.0
0.0
0.0
0.0
0.0
0.0
0.0
-0.8698486
-0.019819537
0.02761848
-0.019819537
-0.019819537
-0.019819537
-0.019819537
-0.019819537
-0.019819537
-0.019819537
-0.019819537
-0.019819537
-0.019819537
-0.019819537
-0.019819537
-0.019819537
-0.019819537
-0.019819537
-0.019819537
-0.019819537
-0.019819537
-0.019819537
-0.019819537
-0.019819537
-0.019819537
-0.019819537
-0.019819537
4.9636613E-13
4.9636613E-13
4.9636613E-13
4.9636613E-13
4.9636613E-13
4.9636613E-13
4.9636613E-13
4.9636613E-13
4.9636613E-13
4.9636613E-13
4.9636613E-13
4.9636613E-13
4.9636613E-13
4.9636613E-13
4.9636613E-13
4.9636613E-13
4.9636613E-13
4.9636613E-13
4.9636613E-13
4.9636613E-13
4.9636613E-13
4.9636613E-13
4.9636613E-13
4.9636613E-13
4.9636613E-13
4.9636613E-13
4.9636613E-13
4.9636613E-13
4.9636613E-13
4.9636613E-13
4.9636613E-13
4.9636613E-13
4.9636613E-13
4.9636613E-13
4.9636613E-13
4.9636613E-13
4.9636613E-13
4.9636613E-13
4.9636613E-13
4.9636613E-13
4.9636613E-13
4.9636613E-13
4.9636613E-13
4.9636613E-13
4.9636613E-13
4.9636613E-13
4.9636613E-13
4.9636613E-13
4.9636613E-13
4.9636613E-13
4.9636613E-13
4.9636613E-13
4.9636613E-13
4.9636613E-13
4.9636613E-13
4.9636613E-13
4.9636613E-13
4.9636613E-13
4.9636613E-13
4.9636613E-13
4.9636613E-13
4.9636613E-13
4.9636613E-13
4.9636613E-13
4.9636613E-13
4.9636613E-13
4.9636613E-13
4.9636613E-13
4.9636613E-13
4.9636613E-13
4.9636613E-13
4.9636613E-13
4.9636613E-13
4.9636613E-13
4.9636613E-13
4.9636613E-13
4.9636613E-13
4.9636613E-13
4.9636613E-13
4.9636613E-13
4.9636613E-13
4.9636613E-13
